solver_type L2R_L2LOSS_SVC_DUAL
nr_class 6
label 1 2 3 4 5 6
nr_feature 17600
bias -1
w
0 0 0 0 0 0 
0 0 0 0 0 0 
0 0 0 0 0 0 
0 0 0 0 0 0 
-0.005764697074240811 0.009458102600182859 0.03645785950560546 -0.04880511262875569 0.0205213582927284 -0.02608480861323498 
-0.02188059033468018 0.03751039231641842 0.009305480124888533 -0.04083534081370693 -0.006599933063902318 0.0241146007919227 
-0.01096154659828287 0.02508452296586193 -0.01053275554117718 0.0004860306156661433 -0.009519663983288611 0.005100118594753299 
-0.01252773351186127 0.02219949311999925 0.08966467406668922 -0.05369109801463147 -0.03193583207639098 0.03024284888641006 
0 0 0 0 0 0 
0 0 0 0 0 0 
0 0 0 0 0 0 
0 0 0 0 0 0 
0 0 0 0 0 0 
0 0 0 0 0 0 
0 0 0 0 0 0 
0 0 0 0 0 0 
0 0 0 0 0 0 
0 0 0 0 0 0 
0 0 0 0 0 0 
0 0 0 0 0 0 
0.005696878634321064 0.01103428940755291 0.02580693650210143 -0.004783886277174403 -0.06416961304935637 -0.001523800420391299 
0.0009696638504204579 0.02659511180969416 -0.04988915315949655 0.02696715252910722 0.0358350677986317 -0.02365463997002275 
-0.01597898116271911 0.03999450543949361 -0.03086856766490717 -0.006976165853860654 -0.02251856946953358 0.03404175566193757 
-0.086065990556142 -0.002575102369873016 0.02137024347860289 0.04791205260196029 -0.1084603817624929 0.06394657860106331 
0 0 0 0 0 0 
0 0 0 0 0 0 
0 0 0 0 0 0 
0 0 0 0 0 0 
0 0 0 0 0 0 
0 0 0 0 0 0 
0 0 0 0 0 0 
0 0 0 0 0 0 
0 0 0 0 0 0 
0 0 0 0 0 0 
0 0 0 0 0 0 
0 0 0 0 0 0 
0.00937312763160404 0.01157496601547128 -0.01914061141807345 0.03257957710524898 -0.03474581472379714 -0.01747228458565685 
0.05827373902076634 -0.04572638402685657 -0.01619838336548443 -0.004192420036582482 -0.02399031369736648 -0.002994714424008207 
0.01778095332961589 -0.03047250123433599 -0.03725609337054429 -0.001501692426674467 -0.03408012159188342 0.05903139986431079 
-0.09782021610090608 0.05337898324785147 0.00744924487351127 0.04191905852662389 -0.02140572379706534 0.01819896153171766 
0 0 0 0 0 0 
0 0 0 0 0 0 
0 0 0 0 0 0 
0 0 0 0 0 0 
0 0 0 0 0 0 
0 0 0 0 0 0 
0 0 0 0 0 0 
0 0 0 0 0 0 
0 0 0 0 0 0 
0 0 0 0 0 0 
0 0 0 0 0 0 
0 0 0 0 0 0 
0.0410338039615623 -0.05782885064117313 0.007633695533951687 -0.008051973421853325 0.01906474303482675 -0.01181178135525086 
-0.02943713363432615 -0.031877880069324 -0.02419879276389597 -0.01858363125832811 -0.004584789156835072 0.05608365165634401 
-0.05286836756962097 0.004698498000565854 -0.02289157456000292 -0.03044090906641013 0.04588864903332632 0.04223427860829614 
0.01084866247357783 0.07960709941435617 -0.0202117305738882 0.0562593884517652 0.02824159413413953 -0.03078626920279017 
0 0 0 0 0 0 
0 0 0 0 0 0 
0 0 0 0 0 0 
0 0 0 0 0 0 
0 0 0 0 0 0 
0 0 0 0 0 0 
0 0 0 0 0 0 
0 0 0 0 0 0 
0 0 0 0 0 0 
0 0 0 0 0 0 
0 0 0 0 0 0 
0 0 0 0 0 0 
-0.02593229758306354 0.01298219144581945 -0.005874620264396927 0.01154905496655124 0.0145780913781947 -0.0001870012215994 
-0.03364738206748786 0.02355978651903306 -0.01156656128286942 0.03072418291013703 -0.00340066543688708 0.004152350269696731 
-0.05563547696204154 0.001037445609151891 -0.01061403891212123 0.02796512661341435 -0.001211218029776341 0.04779504634745177 
-0.01292603813407142 0.02480406252766237 -0.01263035574382381 0.01907182136665336 -0.02537410539211352 0.000420730665483242 
0 0 0 0 0 0 
0 0 0 0 0 0 
0 0 0 0 0 0 
0 0 0 0 0 0 
0 0 0 0 0 0 
0 0 0 0 0 0 
0 0 0 0 0 0 
0 0 0 0 0 0 
0 0 0 0 0 0 
0 0 0 0 0 0 
0 0 0 0 0 0 
0 0 0 0 0 0 
-0.004468218076179054 -0.01499845954723555 0.01001152970371261 -0.01135725332609091 -0.01791523862170472 0.0004279017949630899 
-0.03031347631157449 -0.01219755665039257 -0.01080752357358668 0.001465297599364518 -0.01685420601822817 0.03285696107912751 
-0.06449184241069311 -0.0130259440905132 0.02988210499115163 -0.01861994689542791 -0.0195095464815618 0.02525663401408757 
-0.05731558668515217 0.008110052375684195 -0.001601331788694322 0.06624063354065512 -0.02413466091449584 0.01993399189807789 
0 0 0 0 0 0 
0 0 0 0 0 0 
0 0 0 0 0 0 
0 0 0 0 0 0 
0 0 0 0 0 0 
0 0 0 0 0 0 
0 0 0 0 0 0 
0 0 0 0 0 0 
0 0 0 0 0 0 
0 0 0 0 0 0 
0 0 0 0 0 0 
0 0 0 0 0 0 
-0.01640620188834342 0.02825297432548873 0.02824371169346475 -0.05512173211246675 -0.01435388167292527 0.01101879991991279 
-0.01024404468273843 -0.0185254672095704 0.02882617937928222 -0.03122893051709769 -0.01013619290983196 -0.004668836010987415 
-0.02695740366640982 -0.0268905492292362 0.04409318262135404 -0.03747642173044407 -0.01892325585153793 0.01006624730392287 
-0.001002605908277554 0.01213855277038962 0.02042041952875498 -0.03480663351480018 -0.01658647892183852 -0.001422575986465948 
0 0 0 0 0 0 
0 0 0 0 0 0 
0 0 0 0 0 0 
0 0 0 0 0 0 
0 0 0 0 0 0 
0 0 0 0 0 0 
0 0 0 0 0 0 
0 0 0 0 0 0 
0 0 0 0 0 0 
0 0 0 0 0 0 
0 0 0 0 0 0 
0 0 0 0 0 0 
-0.005394650530651262 0.003192526239865058 0.002094355631145552 -0.0002482416348012367 0.007580060372855204 0.01158754982926613 
-0.00680740934966645 -0.01303541882702567 0.02926238444832349 -0.05167002892193443 -0.007665194427403673 0.007912755574865047 
-0.01734215736203629 -0.02572978553744818 0.006933081979644693 -0.01232896702136767 -0.004364786988513543 0.02332576442549533 
-0.0981937153807092 0.05350022378661728 0.05930746353096013 -0.05789321767470883 0.03385914675924214 -0.001439743925677731 
0 0 0 0 0 0 
0 0 0 0 0 0 
0 0 0 0 0 0 
0 0 0 0 0 0 
0 0 0 0 0 0 
0 0 0 0 0 0 
0 0 0 0 0 0 
0 0 0 0 0 0 
0 0 0 0 0 0 
0 0 0 0 0 0 
0 0 0 0 0 0 
0 0 0 0 0 0 
-0.03079060415812841 0.007889625453265874 0.01575268458486897 -0.01651272282307561 0.02537757198773899 0.00445804828901133 
-0.06320984018940508 0.01312415295170538 0.01071316352422718 -0.0008156088389750554 0.001863214165246745 0.029541094115591 
-0.03843425020738386 0.032272753330451 -0.00960171769419621 -0.01818995428573811 0.02398111916882973 -0.003067865340623799 
-0.1237799168282977 -0.06767039352971124 0.06860780783498954 0.0157615300448227 -0.002383699482003881 0.07779791854182198 
0 0 0 0 0 0 
0 0 0 0 0 0 
0 0 0 0 0 0 
0 0 0 0 0 0 
0 0 0 0 0 0 
0 0 0 0 0 0 
0 0 0 0 0 0 
0 0 0 0 0 0 
0 0 0 0 0 0 
0 0 0 0 0 0 
0 0 0 0 0 0 
0 0 0 0 0 0 
0.01920246986468433 -0.07078434825768407 -0.01574018634589784 0.02521317588932388 -0.01530314930996536 0.02797137033837751 
0.01538496635880074 -0.02606150881588214 -0.03717031096064839 0.04669762118257999 0.001796912682380035 0.008319216121041334 
0.001851224067956692 0.04494572638703427 -0.02957985125081265 -0.01000202979903302 -0.01795325759266823 -0.001051805447073648 
-0.02258262017896386 -0.04124803722790862 0.05252836157557864 -0.01259590729690998 -0.05828031816519726 0.005196214061606822 
0 0 0 0 0 0 
0 0 0 0 0 0 
0 0 0 0 0 0 
0 0 0 0 0 0 
0 0 0 0 0 0 
0 0 0 0 0 0 
0 0 0 0 0 0 
0 0 0 0 0 0 
0 0 0 0 0 0 
0 0 0 0 0 0 
0 0 0 0 0 0 
0 0 0 0 0 0 
0.007973191742199999 -0.04116463083184789 -0.02159840705433308 0.01308885569790557 0.01881552887382365 0.00776603082595509 
0.01776930661557287 0.02467624278231983 -0.05495611075115665 -0.01813108305261067 0.04404116367134388 -0.002475974009791891 
0.01816341035942357 0.07290928441007828 -0.05171375931763493 -0.08908975837041877 0.05752270213244813 -0.02071474102474352 
-0.02198794450715694 -0.1083959730686603 -0.006023596228198929 0.01145221454801922 0.01905576175377552 0.03061821344418577 
0 0 0 0 0 0 
0 0 0 0 0 0 
0 0 0 0 0 0 
0 0 0 0 0 0 
0 0 0 0 0 0 
0 0 0 0 0 0 
0 0 0 0 0 0 
0 0 0 0 0 0 
0 0 0 0 0 0 
0 0 0 0 0 0 
0 0 0 0 0 0 
0 0 0 0 0 0 
0.04400855843395501 -0.007753622929453061 -0.03120408886114985 -0.02484487958177001 -0.008378513899193141 0.008951204230687432 
0.02405851549555367 0.0408628710429678 -0.04830058669530895 -0.02646834229534033 0.02144167120899543 -0.02134101873873814 
0.019694710998999 0.07878416989196436 -0.04496158528024669 -0.0581832519846354 0.004416746319633816 0.04145473545857018 
-0.04053366796618814 -0.05969086178110541 0.02076547367784465 0.004302366045640886 0.01883116116843635 0.01027379610258817 
0 0 0 0 0 0 
0 0 0 0 0 0 
0 0 0 0 0 0 
0 0 0 0 0 0 
0 0 0 0 0 0 
0 0 0 0 0 0 
0 0 0 0 0 0 
0 0 0 0 0 0 
0 0 0 0 0 0 
0 0 0 0 0 0 
0 0 0 0 0 0 
0 0 0 0 0 0 
0.009467014212945093 -0.04382488653580228 -0.03516991173644832 0.04525385877324302 0.004632729436347155 0.01623082729551147 
0.04387885180078689 -0.05698422009976651 -0.01563440174289659 0.00225128346522519 -0.02103572883778274 0.008485855051115463 
-0.01294254646090648 -0.06138176855444168 -0.008603834405304716 0.0215693016208495 -0.02449130548674056 0.06147841474466666 
-0.03964212366929099 0.05329591595490032 -0.07385723244954619 -0.02603087338959789 0.1103920534120043 0.01859808103469061 
0 0 0 0 0 0 
0 0 0 0 0 0 
0 0 0 0 0 0 
0 0 0 0 0 0 
0 0 0 0 0 0 
0 0 0 0 0 0 
0 0 0 0 0 0 
0 0 0 0 0 0 
0 0 0 0 0 0 
0 0 0 0 0 0 
0 0 0 0 0 0 
0 0 0 0 0 0 
-0.03217584540934765 -0.02171868850497669 -0.0034641776320474 0.002581794788183951 -0.01655044618722365 0.02895271696992735 
-0.02200962977663283 -0.05199828627609956 0.02870280454531384 -0.0146937417090079 -0.04453049714975483 0.0359907940297195 
-0.09489252621881006 -0.05796969718512462 0.03872741262123265 -0.01989612182883713 -0.08680103149356172 0.1104802219876013 
0.009301565860935201 0.02758230860264638 -0.1251107189988452 0.03146226069964402 0.0611858258254926 -0.009001073675412495 
0 0 0 0 0 0 
0 0 0 0 0 0 
0 0 0 0 0 0 
0 0 0 0 0 0 
0 0 0 0 0 0 
0 0 0 0 0 0 
0 0 0 0 0 0 
0 0 0 0 0 0 
0 0 0 0 0 0 
0 0 0 0 0 0 
0 0 0 0 0 0 
0 0 0 0 0 0 
-0.02798276893223157 -0.007099209368611756 -0.007559521797610715 -0.01160752516271472 -0.01020475707636892 0.01666677504571652 
-0.04403306409433806 -0.05318988578433835 0.04638050164921504 -0.0490624560441993 0.008816552245086408 0.02113308824523264 
-0.07749517722422027 -0.04323510650989291 0.07255689976960472 -0.059257425512178 -0.03088476386664783 0.03538462848616365 
-0.06988346845311988 0.01365167223436523 -0.04860669072446788 0.07494830117348654 0.02595876634562711 0.03770855923146119 
0 0 0 0 0 0 
0 0 0 0 0 0 
0 0 0 0 0 0 
0 0 0 0 0 0 
0 0 0 0 0 0 
0 0 0 0 0 0 
0 0 0 0 0 0 
0 0 0 0 0 0 
0 0 0 0 0 0 
0 0 0 0 0 0 
0 0 0 0 0 0 
0 0 0 0 0 0 
-0.008725989694276346 0.01667081757645419 0.005878836004639367 -0.02686728259392086 0.01532578401661194 0.00236600316127974 
-0.02271624920752701 -0.04245693228334647 0.03537539825027954 -0.04162192631705127 0.006229012441435738 0.01775210532644427 
-0.05782060089503419 -0.02924491804847346 0.03110092794361307 -0.03810251010204602 -0.01359947997611092 0.04365835236999625 
-0.1000074605006957 0.01426112484231718 0.03970944571043469 -0.02682382951120163 -0.02105112423560147 0.02937256508670284 
0 0 0 0 0 0 
0 0 0 0 0 0 
0 0 0 0 0 0 
0 0 0 0 0 0 
0 0 0 0 0 0 
0 0 0 0 0 0 
0 0 0 0 0 0 
0 0 0 0 0 0 
0 0 0 0 0 0 
0 0 0 0 0 0 
0 0 0 0 0 0 
0 0 0 0 0 0 
-0.002063270224407398 0.004018761446784288 -0.005396165457721636 0.007637361946517773 -0.02355916449044737 -0.004193494496589334 
0.03262834655422239 -0.03633779134663185 -0.06553691945501267 0.09785289234282979 -0.02810865625223255 -0.01740494661401646 
0.03050368838879848 0.003177803801835029 -0.04378766476851726 0.03148601261901416 -0.02036434684274776 0.003608462162060404 
-0.05062757864198277 0.007850131845262565 0.04833915037383264 -0.03324538045087187 0.01816809913906682 -0.01377241514339045 
0 0 0 0 0 0 
0 0 0 0 0 0 
0 0 0 0 0 0 
0 0 0 0 0 0 
0 0 0 0 0 0 
0 0 0 0 0 0 
0 0 0 0 0 0 
0 0 0 0 0 0 
0 0 0 0 0 0 
0 0 0 0 0 0 
0 0 0 0 0 0 
0 0 0 0 0 0 
0.02096294275417988 -0.02851868162969419 -0.018204285912939 0.04551349520180226 -0.01134336021404719 -0.006398501047531519 
0.01109336810456637 -0.04104920132122124 -0.005416585546781098 0.06691443074423446 -0.006180543437081787 -0.01709159881285201 
-0.01985647519946285 0.008507659984061857 -0.01550117831420545 -0.03453603297984249 -0.007546959489767714 0.06670255509113016 
0.08005779704376681 0.01595027857126851 -0.01892743698053479 -0.04957878579709982 0.01258408993953532 -0.08058108896469804 
0 0 0 0 0 0 
0 0 0 0 0 0 
0 0 0 0 0 0 
0 0 0 0 0 0 
0 0 0 0 0 0 
0 0 0 0 0 0 
0 0 0 0 0 0 
0 0 0 0 0 0 
0 0 0 0 0 0 
0 0 0 0 0 0 
0 0 0 0 0 0 
0 0 0 0 0 0 
0.03710278043544907 -0.01177195350852256 -0.03577438935881871 0.02372258206087998 0.009639744676660348 -0.01562480993179073 
0.0004007174215657863 -0.007289651795693678 -0.02615627230532706 0.0120265911686057 0.005616010758851941 0.0004977160603776216 
-0.06992615098336834 0.04704724752041675 -0.05286530893553691 0.04693426208055961 0.004994320332564629 0.03147374169489763 
0.03775743285751982 -0.05351400076948774 -0.01992336270615732 -0.04731079155089492 0.04135166359324809 0.0004747468619649347 
0 0 0 0 0 0 
0 0 0 0 0 0 
0 0 0 0 0 0 
0 0 0 0 0 0 
0 0 0 0 0 0 
0 0 0 0 0 0 
0 0 0 0 0 0 
0 0 0 0 0 0 
0 0 0 0 0 0 
0 0 0 0 0 0 
0 0 0 0 0 0 
0 0 0 0 0 0 
0.03806212409157671 0.0744378840565563 -0.03934780711167573 -0.01687923786904658 0.00606060698597413 -0.02079115124673421 
-0.005279265491432996 0.004795789593560945 -0.05678227205015864 0.06639141524472182 0.05973386989205876 -0.004564872221232384 
-0.05163028944861888 0.006388021140728558 -0.07282936222553313 0.01986721816269597 0.06390181983539504 0.01329978408129652 
-0.02176779247788196 -0.04655034850278685 0.03307729845471847 -0.08041642097656211 -0.02824830664954291 0.005153851837204824 
0 0 0 0 0 0 
0 0 0 0 0 0 
0 0 0 0 0 0 
0 0 0 0 0 0 
0 0 0 0 0 0 
0 0 0 0 0 0 
0 0 0 0 0 0 
0 0 0 0 0 0 
0 0 0 0 0 0 
0 0 0 0 0 0 
0 0 0 0 0 0 
0 0 0 0 0 0 
0.05893506290007047 -0.0004430912523051557 -0.02144016658238123 -0.005888978797799847 -0.01642113418411928 -0.0019022347353921 
0.05243283025565149 -0.03332326266613125 0.01200709441310381 -0.05807977496834469 -0.02460275198551884 0.03035669431421254 
-0.01309643015265511 -0.1443133253006248 0.06775184041759337 -0.02111788781115831 -0.02867176345546373 0.03564863556345538 
-0.02609620152959848 -0.04490830779652725 -0.1054078783995358 0.08767825746536738 0.0440101430631822 0.0126483314266072 
0 0 0 0 0 0 
0 0 0 0 0 0 
0 0 0 0 0 0 
0 0 0 0 0 0 
0 0 0 0 0 0 
0 0 0 0 0 0 
0 0 0 0 0 0 
0 0 0 0 0 0 
0 0 0 0 0 0 
0 0 0 0 0 0 
0 0 0 0 0 0 
0 0 0 0 0 0 
0.03891165226112366 -0.0009833053991567641 -0.01303847709122387 0.007989166932872101 0.002246108579678605 -0.0198627188126471 
0.0679945221974642 -0.07242877583061684 0.02170305593387946 -1.506825708520147e-05 0.001251793360014936 -0.05395236525861618 
-0.007552272707538542 -0.003604470144321663 0.04887536880630592 -0.03840560166020224 -0.01900979411850165 -0.0520647811055077 
-0.02203591830124256 0.04857413478907373 -0.1202426711433666 -0.01327622426097521 0.09421721325729149 0.0480902689257079 
0 0 0 0 0 0 
0 0 0 0 0 0 
0 0 0 0 0 0 
0 0 0 0 0 0 
0 0 0 0 0 0 
0 0 0 0 0 0 
0 0 0 0 0 0 
0 0 0 0 0 0 
0 0 0 0 0 0 
0 0 0 0 0 0 
0 0 0 0 0 0 
0 0 0 0 0 0 
-0.03284539614539766 -0.0008644864364244925 -0.00262580303689481 0.007676619614905928 0.03334477438143501 -0.005679600615358493 
-0.02737706800569081 -0.05144312677870957 0.02160792592276966 -0.01501005533112214 0.007057438916808056 0.02144237157917822 
0.001688958399475523 -0.01672186755176618 0.01063387546203093 -0.02025324055718769 -0.03011212061013405 -0.01650423510569645 
-0.01039638525334047 0.02448927622213403 -0.02878238906878798 0.005046968115076084 -0.01046516261517668 0.002688476245966324 
0 0 0 0 0 0 
0 0 0 0 0 0 
0 0 0 0 0 0 
0 0 0 0 0 0 
0 0 0 0 0 0 
0 0 0 0 0 0 
0 0 0 0 0 0 
0 0 0 0 0 0 
0 0 0 0 0 0 
0 0 0 0 0 0 
0 0 0 0 0 0 
0 0 0 0 0 0 
0.01560593478439929 0.002012287030470565 0.00573384814594116 -0.004051057420253196 -0.01350982682480433 -0.01084235674070464 
-0.0101158735446167 0.002247611704733603 0.01479872334203381 -0.02307409436209778 -0.01869009803224008 0.01671051737843059 
-0.0108472219149584 0.01085962092219104 0.02238266635655804 -0.02712053602205982 -0.01003868045817351 0.004883247865612271 
-0.05376803389184734 0.09190916384779121 -0.05340078835208076 0.03140904206693722 -0.003139047678618807 0.005274974961499757 
0 0 0 0 0 0 
0 0 0 0 0 0 
0 0 0 0 0 0 
0 0 0 0 0 0 
0 0 0 0 0 0 
0 0 0 0 0 0 
0 0 0 0 0 0 
0 0 0 0 0 0 
0 0 0 0 0 0 
0 0 0 0 0 0 
0 0 0 0 0 0 
0 0 0 0 0 0 
-0.01462466223271354 -0.02700243919388355 0.005537016659312404 0.04042958611227088 -0.004751468073407638 -0.001444387197664383 
-0.02449235579416087 0.01214603003891518 -0.009315836665418182 0.006822096130597829 -0.01670057162377182 0.009276165962794982 
-0.004121159173432202 0.0006201519353254698 -0.03334437949608452 0.007967530613595772 -0.001349994964160713 0.01707288594077151 
-0.03037230464371369 0.03883749865980754 -0.09604529383869022 0.04061363144106947 0.0501513263634693 -0.01646049424678181 
0 0 0 0 0 0 
0 0 0 0 0 0 
0 0 0 0 0 0 
0 0 0 0 0 0 
0 0 0 0 0 0 
0 0 0 0 0 0 
0 0 0 0 0 0 
0 0 0 0 0 0 
0 0 0 0 0 0 
0 0 0 0 0 0 
0 0 0 0 0 0 
0 0 0 0 0 0 
0.037126058204334 -0.004450836475794306 -0.006777130519602941 0.01930541396344089 -0.02745779641187807 -0.01732160202249546 
-0.02424402161991892 -0.004165584295661245 0.004672024455213556 0.0003758853697838169 -0.005883771965694167 0.01030635603654333 
-0.04275218214719678 0.01482971885798001 -0.03342556430797734 -0.0002285515045614433 -0.01140560240661071 0.04463265221726383 
0.04051908857574228 0.06361431644586413 -0.07059510034110653 0.005974674508058531 0.06199912367485746 -0.04146775668250267 
0 0 0 0 0 0 
0 0 0 0 0 0 
0 0 0 0 0 0 
0 0 0 0 0 0 
0 0 0 0 0 0 
0 0 0 0 0 0 
0 0 0 0 0 0 
0 0 0 0 0 0 
0 0 0 0 0 0 
0 0 0 0 0 0 
0 0 0 0 0 0 
0 0 0 0 0 0 
0.00564691829391975 0.01766554572422979 -0.01324909735632793 -0.005761095309490058 0.0004027959874069236 -0.01852251582021253 
-0.03229719547767425 -0.02244395312991585 -0.02434429362458571 0.05543777520809549 0.03264540709026777 -0.02395217167052525 
-0.04146207227900826 -0.0214712128459873 -0.07492203244219728 0.09430583086697918 0.03675208489662476 -0.03105508101342233 
-0.007921809818687234 -0.01708262483889779 0.01776689795886538 -0.1100636774501415 -0.03919675396677588 0.01709658482556832 
0 0 0 0 0 0 
0 0 0 0 0 0 
0 0 0 0 0 0 
0 0 0 0 0 0 
0 0 0 0 0 0 
0 0 0 0 0 0 
0 0 0 0 0 0 
0 0 0 0 0 0 
0 0 0 0 0 0 
0 0 0 0 0 0 
0 0 0 0 0 0 
0 0 0 0 0 0 
0.03065825335498606 0.00488902214052185 -0.04303209377304753 0.001315692356231153 -0.002323454598408727 -0.006937061151793556 
-0.001444223943922043 0.03384323156230291 -0.04486267069170462 -0.008681844256069908 0.01283479459180154 -0.02933340447499763 
-0.04931469794961921 0.09963287639224712 -0.03841255720245922 -0.01187819481644868 -0.03247053942325993 -0.006425565449430444 
-0.06278485651024344 -0.0533091328629442 0.01316467914621521 -0.02800502770664077 0.0008850277757531069 0.03829521710622234 
0 0 0 0 0 0 
0 0 0 0 0 0 
0 0 0 0 0 0 
0 0 0 0 0 0 
0 0 0 0 0 0 
0 0 0 0 0 0 
0 0 0 0 0 0 
0 0 0 0 0 0 
0 0 0 0 0 0 
0 0 0 0 0 0 
0 0 0 0 0 0 
0 0 0 0 0 0 
-0.002407229117814976 -0.01070982364913573 -0.0265679881500039 0.02790853130489989 0.01331359560327047 -0.0102527934994104 
-0.02127367940453178 -0.04758992426808014 -0.0006050732993025846 -0.008220270539519689 0.006021864610116146 -0.0008542563167215621 
-0.0377022579688766 -0.04319178587046703 0.05232345492713699 -0.08123374574870168 0.01891364099002278 0.02672719545754572 
-0.02521776359045002 0.01430355987784001 -0.04836281118203305 -0.004841072573509168 -0.04614265679599677 -0.001948289350848381 
0 0 0 0 0 0 
0 0 0 0 0 0 
0 0 0 0 0 0 
0 0 0 0 0 0 
0 0 0 0 0 0 
0 0 0 0 0 0 
0 0 0 0 0 0 
0 0 0 0 0 0 
0 0 0 0 0 0 
0 0 0 0 0 0 
0 0 0 0 0 0 
0 0 0 0 0 0 
-0.008981434580609121 -0.001284978231536051 -0.01975821457358927 0.01903747225292337 0.01995847655480076 -0.01870390242780404 
0.02178361154760315 -0.06553375485127223 -0.01816332453523005 0.03359746223525387 -0.01770848483597053 0.007399705796977261 
0.006992799498753551 0.07883508167867435 0.01160494998242266 -0.06208210801594762 -0.04091618054632305 -0.003899936752431888 
-0.02057905766173057 -0.01643792595626065 -0.07520654975932847 0.07179719683051619 0.0119632859806848 -0.003133564442951611 
0 0 0 0 0 0 
0 0 0 0 0 0 
0 0 0 0 0 0 
0 0 0 0 0 0 
0 0 0 0 0 0 
0 0 0 0 0 0 
0 0 0 0 0 0 
0 0 0 0 0 0 
0 0 0 0 0 0 
0 0 0 0 0 0 
0 0 0 0 0 0 
0 0 0 0 0 0 
-0.01370971825268807 -0.03266474162146091 -0.007877944236068761 0.03498747392670775 0.002819764274358543 0.00793297184279519 
-0.003389141477662221 -0.06439919929731416 -0.01676950696739357 0.05855155895188676 -0.01808990246115064 -0.008506565122653508 
0.003935568371458707 0.02275463132793498 -0.02467356671089682 0.02691577421424288 -0.02306556573479587 0.01113071218457623 
0.1158300027833814 0.05496540100816003 -0.04761439365568305 -0.04251601748768636 -0.05241952432368419 -0.03466859961553973 
0 0 0 0 0 0 
0 0 0 0 0 0 
0 0 0 0 0 0 
0 0 0 0 0 0 
0 0 0 0 0 0 
0 0 0 0 0 0 
0 0 0 0 0 0 
0 0 0 0 0 0 
0 0 0 0 0 0 
0 0 0 0 0 0 
0 0 0 0 0 0 
0 0 0 0 0 0 
-0.003381279917378385 -0.01266474740209491 0.0155506154717929 0.004639191221295487 0.02131376228001856 -0.01677781782516347 
-0.01658708044680115 -0.01369526350676807 -0.006381000251623232 0.05357069982500961 0.005791965391331236 -0.00421723264902408 
0.0166959455033887 -0.002875108339313738 -0.01528064935478796 0.03677015939053721 0.02018878189205528 -0.01772642241975755 
-0.02622908775140099 0.1081292591090117 -0.01350845661933462 -0.0110069265342475 0.005052125475317999 -0.006146971312871827 
0 0 0 0 0 0 
0 0 0 0 0 0 
0 0 0 0 0 0 
0 0 0 0 0 0 
0 0 0 0 0 0 
0 0 0 0 0 0 
0 0 0 0 0 0 
0 0 0 0 0 0 
0 0 0 0 0 0 
0 0 0 0 0 0 
0 0 0 0 0 0 
0 0 0 0 0 0 
-0.006710163070754494 -0.02740469584183929 0.001399845544666394 0.02152347028421635 -0.008994083198700317 0.005598231001405635 
-0.007871817119756935 -0.04366043396817004 -0.01536820189543036 0.04583121764298087 0.01259712143388766 -0.003524328553041689 
-0.0108705381808911 0.01353032346581579 -0.01057604972966704 0.01329013998135405 -0.004009848590617662 0.008294458257067181 
0.0196190913378468 0.04230484917434355 -0.05862689525509791 0.03773102108341771 -0.02912863996663334 -0.0001465736358733228 
0 0 0 0 0 0 
0 0 0 0 0 0 
0 0 0 0 0 0 
0 0 0 0 0 0 
0 0 0 0 0 0 
0 0 0 0 0 0 
0 0 0 0 0 0 
0 0 0 0 0 0 
0 0 0 0 0 0 
0 0 0 0 0 0 
0 0 0 0 0 0 
0 0 0 0 0 0 
-0.009805458012608046 -0.0235979120989236 -0.02257991710930829 0.06449280965005738 -0.0106623969493463 -0.01657264020383162 
-0.04687444411375021 -0.02768295701966171 -0.002174480303999221 0.01511773540164815 -0.01357337437138069 -0.01744183944117791 
-0.02671040082921709 -0.01432119272158221 -0.0288207032469341 0.05126160176640383 -0.01626824054548438 0.01340903541285061 
0.07882024944106283 0.07748713086318222 -0.01293543341895361 -0.02454984512683133 -0.08985349095532887 -0.04031193335326206 
0 0 0 0 0 0 
0 0 0 0 0 0 
0 0 0 0 0 0 
0 0 0 0 0 0 
0 0 0 0 0 0 
0 0 0 0 0 0 
0 0 0 0 0 0 
0 0 0 0 0 0 
0 0 0 0 0 0 
0 0 0 0 0 0 
0 0 0 0 0 0 
0 0 0 0 0 0 
0.01744107755817073 -0.04205416142425593 -0.0194264074787551 0.05880115207873619 -0.02285779301869887 -0.005843034759133588 
0.005591926896877377 -0.06070799899796378 0.008245607122530418 0.005835307913734327 -0.01581253605950298 -0.0182888784596426 
-0.01247348858044035 0.01721094479503247 0.007007736599552819 0.01190159887487901 -0.03556485270198621 -0.02390336456421072 
-0.01905123481974288 0.03912261267719246 -0.0834284214836644 0.006889296036704027 0.005732239996530097 0.0253654363454929 
0 0 0 0 0 0 
0 0 0 0 0 0 
0 0 0 0 0 0 
0 0 0 0 0 0 
0 0 0 0 0 0 
0 0 0 0 0 0 
0 0 0 0 0 0 
0 0 0 0 0 0 
0 0 0 0 0 0 
0 0 0 0 0 0 
0 0 0 0 0 0 
0 0 0 0 0 0 
0.02681052248293498 0.01549990597475709 -0.04566034138828332 0.06611945680744027 -0.0149755594053034 -0.02053495209222297 
-0.03166855955455841 -0.02258619897911963 -0.01239190240012283 0.04261658855382129 -0.005343897476408401 -0.01748708743100019 
-0.0009011294879205269 -0.05104815711524675 0.01670068499950504 0.01058245688207239 -0.02526396973133123 -0.009487669099604593 
-0.03097704913328532 0.06206361278506529 -0.03959584995126406 -0.01290859827740914 -0.01975065586441471 -0.003215367724323116 
0 0 0 0 0 0 
0 0 0 0 0 0 
0 0 0 0 0 0 
0 0 0 0 0 0 
0 0 0 0 0 0 
0 0 0 0 0 0 
0 0 0 0 0 0 
0 0 0 0 0 0 
0 0 0 0 0 0 
0 0 0 0 0 0 
0 0 0 0 0 0 
0 0 0 0 0 0 
0.02337453379849351 -0.01274197508005335 -0.03113964764522541 0.04710243720781281 7.757263125819435e-05 -0.02142008888427822 
-0.03439767332926937 0.02109759406165184 -0.03732717233151073 0.01385349110104326 -0.02733891293000811 0.001832954051908417 
-0.006330306879467955 0.1028439441940186 -0.01215474962505698 -0.07150528965085515 -0.02194384893616477 -0.02076052946162749 
-0.01094350380465369 -0.0548151716008206 0.007481774296549588 -0.02356120858153676 -0.02573122230033306 -0.005246209112283447 
0 0 0 0 0 0 
0 0 0 0 0 0 
0 0 0 0 0 0 
0 0 0 0 0 0 
0 0 0 0 0 0 
0 0 0 0 0 0 
0 0 0 0 0 0 
0 0 0 0 0 0 
0 0 0 0 0 0 
0 0 0 0 0 0 
0 0 0 0 0 0 
0 0 0 0 0 0 
-0.001302789018580949 -0.04428782260255152 -0.01973996044217628 0.07375382893506488 -0.01373450028035558 -0.001453848331066152 
-0.01385173374689777 -0.02272287955951255 -0.03518856133941366 0.06129886307271792 -0.03413076431836968 0.01250308587206316 
0.01929966120820822 0.005811797569163029 -0.01132525441895258 0.02167209144767169 -0.02517084395727959 0.0005883300193238463 
-0.006411538743997519 0.05295458122297673 -0.01871839480546414 -0.0450848238167505 -0.03675036515034745 -0.0240506934902206 
0 0 0 0 0 0 
0 0 0 0 0 0 
0 0 0 0 0 0 
0 0 0 0 0 0 
0 0 0 0 0 0 
0 0 0 0 0 0 
0 0 0 0 0 0 
0 0 0 0 0 0 
0 0 0 0 0 0 
0 0 0 0 0 0 
0 0 0 0 0 0 
0 0 0 0 0 0 
-0.009134048736256416 -0.04188730840153155 0.01030823426515073 0.03864478018748432 -0.0236289279563907 -0.002221477263959371 
-0.001220580583159967 -0.04559887613126044 -0.006639707626076961 0.05990504709697999 -0.0171082565965756 -0.02626201108138871 
0.03771821770579969 0.06742457921891271 -0.009806102879659806 -0.04170716048725802 -0.04295899225524431 -0.0004569555082255506 
0.05495981917438995 0.01201018141693396 -0.05484140137325764 -0.06557114820265744 -0.007348678748989529 -0.0188922100306899 
0 0 0 0 0 0 
0 0 0 0 0 0 
0 0 0 0 0 0 
0 0 0 0 0 0 
0 0 0 0 0 0 
0 0 0 0 0 0 
0 0 0 0 0 0 
0 0 0 0 0 0 
0 0 0 0 0 0 
0 0 0 0 0 0 
0 0 0 0 0 0 
0 0 0 0 0 0 
-0.002183253949057934 -0.03062062975783334 -0.002473567315891933 0.01720918309547241 0.02036718587724336 -0.01184906805507862 
-0.008905879551193324 -0.001411320867985456 -0.01332175169951973 0.02506209708421581 0.000330925800186875 -0.0120384164415254 
-0.0004731653887125943 0.01115699476887195 -0.013954308256178 0.0115253610694449 0.009117853534413408 0.006020063282070998 
-0.01379295695407951 -0.01342275641875104 -0.03528396383787944 0.03191878715222742 0.03731200161187103 -0.02213071724961595 
0 0 0 0 0 0 
0 0 0 0 0 0 
0 0 0 0 0 0 
0 0 0 0 0 0 
0 0 0 0 0 0 
0 0 0 0 0 0 
0 0 0 0 0 0 
0 0 0 0 0 0 
0 0 0 0 0 0 
0 0 0 0 0 0 
0 0 0 0 0 0 
0 0 0 0 0 0 
0.003067180571390761 -0.00770937374602138 0.003527613749492529 0.01394401605226638 -0.01102770524396645 -0.007686521815117156 
0.01986330666069391 -0.003354118044573388 0.001929810440592524 0.01876426525822375 -0.02906334955727793 -0.008469871402390475 
-0.01739100560268601 -0.02946679724468694 -0.001157104256699755 0.03530281789564785 -0.03260356072638845 0.01321286696835645 
0.04092489186712822 0.04204512496829008 -0.01850983622739384 -0.0678314531366635 -0.04195799047419584 -0.01045286627333169 
0 0 0 0 0 0 
0 0 0 0 0 0 
0 0 0 0 0 0 
0 0 0 0 0 0 
0 0 0 0 0 0 
0 0 0 0 0 0 
0 0 0 0 0 0 
0 0 0 0 0 0 
0 0 0 0 0 0 
0 0 0 0 0 0 
0 0 0 0 0 0 
0 0 0 0 0 0 
0.001347333902057569 -0.01630429707433628 -0.0004683073700627126 0.002596872695370112 0.00995108554859612 -0.01266709049191854 
0.01294168246684383 -0.01425474310541882 -0.00237241222125746 -0.02835119579666871 -0.0118577923230655 -0.02165666712598891 
0.05833222252466078 -0.06389256398516729 -0.005912234631267198 0.03127908297276426 -0.05567725099220347 -0.005546285144509005 
0.05775301457034746 0.06376877197020393 0.07021447947612204 -0.112208030112074 -0.1153183159492327 -0.02607743339679324 
0 0 0 0 0 0 
0 0 0 0 0 0 
0 0 0 0 0 0 
0 0 0 0 0 0 
0 0 0 0 0 0 
0 0 0 0 0 0 
0 0 0 0 0 0 
0 0 0 0 0 0 
0 0 0 0 0 0 
0 0 0 0 0 0 
0 0 0 0 0 0 
0 0 0 0 0 0 
-0.01141519468903377 -0.03649357040973333 -0.01710287171507565 0.04683274183963479 0.008355017035597942 0.01015529090275078 
0.02970611832807664 -0.07640624079009331 -0.004571557500510478 0.06631443282864258 -0.01149175557686194 -0.009162276892048489 
0.02129847533985588 0.007829389201148821 0.02860434023201872 -0.04197329315552355 -0.02808965140651281 -0.01053802519193379 
-0.0367836613457591 0.01413761331775277 -0.1032358260246001 0.07034801616749209 0.02188167203360161 0.005649867017687676 
0 0 0 0 0 0 
0 0 0 0 0 0 
0 0 0 0 0 0 
0 0 0 0 0 0 
0 0 0 0 0 0 
0 0 0 0 0 0 
0 0 0 0 0 0 
0 0 0 0 0 0 
0 0 0 0 0 0 
0 0 0 0 0 0 
0 0 0 0 0 0 
0 0 0 0 0 0 
0.01951575289258236 -0.05020091660161517 -0.01540523743442241 0.07371776681155909 -0.01572440485336815 -0.008929965669698878 
-0.007521993281407791 -0.05200843693080543 -0.04106514130390202 0.08882278191331611 -0.0228213706990836 -0.01142258995806538 
0.04219644787904502 -0.07169546670887884 0.05300831508148033 -0.01010099439224964 -0.02492412622717239 -0.02168038112406158 
-0.004584494061456137 0.0001830770484945407 -0.1085922071830392 0.03494497140565025 0.005287772223193134 -0.006848280744181137 
0 0 0 0 0 0 
0 0 0 0 0 0 
0 0 0 0 0 0 
0 0 0 0 0 0 
0 0 0 0 0 0 
0 0 0 0 0 0 
0 0 0 0 0 0 
0 0 0 0 0 0 
0 0 0 0 0 0 
0 0 0 0 0 0 
0 0 0 0 0 0 
0 0 0 0 0 0 
0.03262783567707256 -0.0286915533533461 -0.03601420348280766 0.0495107387301445 -0.008435648711118852 -0.01761158399327567 
-0.005880054755362185 -0.01462261057784918 -0.09431356577729366 0.1144188234701348 0.02244238168206397 -0.01866577060132992 
-0.002017996808359713 0.05099433561870755 -0.01360703224545532 -0.04146280280014128 0.009870028922128656 0.02989289773356626 
0.03808954402838725 -0.03894143432731196 0.005346246162655496 -0.02414584117798326 -0.03377381070711741 -0.01187078078453241 
0 0 0 0 0 0 
0 0 0 0 0 0 
0 0 0 0 0 0 
0 0 0 0 0 0 
0 0 0 0 0 0 
0 0 0 0 0 0 
0 0 0 0 0 0 
0 0 0 0 0 0 
0 0 0 0 0 0 
0 0 0 0 0 0 
0 0 0 0 0 0 
0 0 0 0 0 0 
0.007305316318637985 -0.03602321513220978 -0.01403046924503742 0.02527801509003711 -0.002503220878739568 -0.01258826828231701 
0.07870856137441215 -0.0422778702552364 -0.03440207052260138 0.03444819801472727 -0.008721269816626099 -0.03747211188713636 
0.0603662049235152 0.09230945867227137 -0.01534961776915582 -0.0720086685673486 -0.03454502358508836 -0.01477260084248681 
-0.007837538116932288 -0.0005746719557528172 -0.03557831929799508 0.01206076338671621 -0.0446665523160556 0.0005804319132075872 
0 0 0 0 0 0 
0 0 0 0 0 0 
0 0 0 0 0 0 
0 0 0 0 0 0 
0 0 0 0 0 0 
0 0 0 0 0 0 
0 0 0 0 0 0 
0 0 0 0 0 0 
0 0 0 0 0 0 
0 0 0 0 0 0 
0 0 0 0 0 0 
0 0 0 0 0 0 
-0.008364413956768919 -0.02721545942985372 0.001170550319822329 0.03323840633444478 -0.01183464767126916 0.003199631158171413 
0.01715869139006786 -0.0635598947824713 0.03808356238689415 0.04639883869066162 -0.01961501193925034 -0.01971207630376785 
0.03983402455494938 0.05950825754548308 0.02667799061758048 -0.08919670427204002 -0.02174724179578616 -0.002096546274589386 
0.06673498700604227 0.02037080736350193 -0.03250364950218956 -0.04572021512124147 -0.08198008724287327 -0.03981781753147253 
0 0 0 0 0 0 
0 0 0 0 0 0 
0 0 0 0 0 0 
0 0 0 0 0 0 
0 0 0 0 0 0 
0 0 0 0 0 0 
0 0 0 0 0 0 
0 0 0 0 0 0 
0 0 0 0 0 0 
0 0 0 0 0 0 
0 0 0 0 0 0 
0 0 0 0 0 0 
-0.02965979846967724 -0.007642397849767845 -0.002739447143217685 0.007364672302172755 -0.006077804831426799 0.009233621730077763 
0.01460782815005845 -0.02106176211656075 -0.008133193627017391 0.03230021015936432 -0.01284030044571711 -0.01298958083446312 
0.005728694834170603 0.01885688576559403 0.00486866874706017 -0.001502263785069645 -0.02581563410042387 -0.006368060125100727 
0.05247271450127912 0.03638309344820666 0.02264076547647368 -0.02295595870158638 -0.09408146367417011 -0.03378773996777537 
0 0 0 0 0 0 
0 0 0 0 0 0 
0 0 0 0 0 0 
0 0 0 0 0 0 
0 0 0 0 0 0 
0 0 0 0 0 0 
0 0 0 0 0 0 
0 0 0 0 0 0 
0 0 0 0 0 0 
0 0 0 0 0 0 
0 0 0 0 0 0 
0 0 0 0 0 0 
-0.009073068217677173 -0.01408585428168643 0.004400507939746203 -0.003144520418206428 0.001051850543114697 -0.007164428798835318 
-0.03380803880697508 -0.04836420767957324 -0.001616287403994925 -0.004923907189017471 -0.01938502523770739 0.04517478383896686 
0.01176768388828229 -0.06831645116383446 -0.01601141831271978 0.05583558776715219 -0.02285732989116285 -0.004299994583596607 
0.02199046553120868 -0.02471907838041146 0.01598015853169211 -0.05582605466667499 -0.01287740638743612 -0.003420014525799121 
0 0 0 0 0 0 
0 0 0 0 0 0 
0 0 0 0 0 0 
0 0 0 0 0 0 
0 0 0 0 0 0 
0 0 0 0 0 0 
0 0 0 0 0 0 
0 0 0 0 0 0 
0 0 0 0 0 0 
0 0 0 0 0 0 
0 0 0 0 0 0 
0 0 0 0 0 0 
-0.004824908299218909 -0.02277720141117438 -0.007161187528289299 -0.005630887282070097 0.02580075653250833 -0.0116142255697498 
0.01789492495184835 -0.09494510893062075 0.01305033587944313 0.01923439859145952 -0.03076053766967827 0.02710473529918588 
0.04036436205411409 -0.09101304024380438 0.04767999659887651 0.002659480781628348 -0.04891096005086364 0.009678258761854491 
0.0829191863230066 0.003135659829314734 0.01499263427511541 -0.09279834445471451 0.001538348856235914 -0.0411525224322666 
0 0 0 0 0 0 
0 0 0 0 0 0 
0 0 0 0 0 0 
0 0 0 0 0 0 
0 0 0 0 0 0 
0 0 0 0 0 0 
0 0 0 0 0 0 
0 0 0 0 0 0 
0 0 0 0 0 0 
0 0 0 0 0 0 
0 0 0 0 0 0 
0 0 0 0 0 0 
7.628828064036931e-05 -0.00352297015237085 -0.005999170776250487 -0.003174930591778259 0.00869167984966477 2.216640121976676e-05 
-0.001387527340406755 -0.02710699371571717 -0.0146786040227856 0.08522186409372118 -0.02564917902885499 -0.009753014338568133 
0.01856119656993732 -0.05529498361812583 0.01328979465799272 0.006295059855451145 -0.006658800895729436 0.005607515995841524 
0.04507199184470843 -0.06254307609267398 -0.01498397529329642 -0.0591823844050727 0.04068215185629992 0.01336556260431544 
0 0 0 0 0 0 
0 0 0 0 0 0 
0 0 0 0 0 0 
0 0 0 0 0 0 
0 0 0 0 0 0 
0 0 0 0 0 0 
0 0 0 0 0 0 
0 0 0 0 0 0 
0 0 0 0 0 0 
0 0 0 0 0 0 
0 0 0 0 0 0 
0 0 0 0 0 0 
0.04787125129345877 -0.01336838248006927 -0.01731144999800659 0.04188093208019123 -0.01928941864416837 -0.03464377932329644 
0.04345164844174568 -0.02444576040570947 -0.02006919898070812 0.07527990366298085 -0.01875186667740595 -0.0442028601405782 
0.003627966437920082 -0.03255164223228223 0.03980233308794262 0.002311270154481062 -0.007286101950380994 -0.015649346707968 
-0.006646823523889127 0.006883615852717015 0.03903333438240011 -0.0519737267813637 0.02248945367144806 0.009868429703315647 
0 0 0 0 0 0 
0 0 0 0 0 0 
0 0 0 0 0 0 
0 0 0 0 0 0 
0 0 0 0 0 0 
0 0 0 0 0 0 
0 0 0 0 0 0 
0 0 0 0 0 0 
0 0 0 0 0 0 
0 0 0 0 0 0 
0 0 0 0 0 0 
0 0 0 0 0 0 
0.04280444862343323 -0.02138113034208282 0.001935448690919963 0.007245229740118087 -0.02815331276478299 -0.002430800126709783 
0.04096269219035237 -0.02597644081613962 0.005094533872271811 -0.00248882436953126 -0.03672363860855032 0.01193340592140038 
0.01473659381463546 0.04585344934815732 0.001056930946691735 -0.02474597660822653 -0.02914163318056262 -0.001799611087260313 
1.035533243982012e-05 -0.03932969041268572 -0.05541358839146601 0.04494587296951297 0.05547035529749517 -0.01404522014259285 
0 0 0 0 0 0 
0 0 0 0 0 0 
0 0 0 0 0 0 
0 0 0 0 0 0 
0 0 0 0 0 0 
0 0 0 0 0 0 
0 0 0 0 0 0 
0 0 0 0 0 0 
0 0 0 0 0 0 
0 0 0 0 0 0 
0 0 0 0 0 0 
0 0 0 0 0 0 
0.04557504695250293 -0.02727850290386094 -0.008761650744782684 0.004378700330584169 0.003539036736829895 -0.0191489903525868 
0.04341491745584568 0.0238047010356105 0.003114857589526839 -0.02613879535778852 -0.03088256236508161 -0.01554506975816742 
0.05755099843042477 0.07479430439668711 -0.02472880140613933 -0.07135507697036578 -0.05080507227667373 0.0162197043555278 
0.04632726522251879 -0.09335932627278631 -0.01947999243158039 -0.008667167023103833 0.04464872709306116 0.001001001779342329 
0 0 0 0 0 0 
0 0 0 0 0 0 
0 0 0 0 0 0 
0 0 0 0 0 0 
0 0 0 0 0 0 
0 0 0 0 0 0 
0 0 0 0 0 0 
0 0 0 0 0 0 
0 0 0 0 0 0 
0 0 0 0 0 0 
0 0 0 0 0 0 
0 0 0 0 0 0 
0.01102270171184264 0.01251239095384062 -0.0007670508575107006 -0.01507084580798662 -0.01189282067903166 -0.01977619356152106 
0.02965222349744644 -0.009492098975063685 0.01627808772326374 -0.01130557589401218 -0.02392599956212436 -0.02278392171571007 
0.03811972092316543 0.08452227753916965 0.008637504905238408 -0.1063087852932226 -0.04581608696878959 -0.003678104407859697 
0.02680611269604772 -0.07867862718245712 -0.009043112767929927 0.007331476060892667 -0.0360979083863227 0.008724674865654019 
0 0 0 0 0 0 
0 0 0 0 0 0 
0 0 0 0 0 0 
0 0 0 0 0 0 
0 0 0 0 0 0 
0 0 0 0 0 0 
0 0 0 0 0 0 
0 0 0 0 0 0 
0 0 0 0 0 0 
0 0 0 0 0 0 
0 0 0 0 0 0 
0 0 0 0 0 0 
-0.01412077749520688 -0.000409361611105838 0.003449224229167352 -0.03158303558110692 0.01034061592524249 0.0005291194964639415 
-0.003984658625512608 -0.01563953147347592 0.003001163512357409 -0.0165105022880958 -0.01825273141463701 0.007491852891263914 
-0.002524226618701699 -0.03240716086105056 0.002520304764528102 0.003963668046241388 -0.01504029930521974 -0.00367687062014406 
-0.01930230934110944 -0.03816253112167779 0.0227757056986992 -0.009644019022851056 -0.04573210787954209 0.005298584869163969 
0 0 0 0 0 0 
0 0 0 0 0 0 
0 0 0 0 0 0 
0 0 0 0 0 0 
0 0 0 0 0 0 
0 0 0 0 0 0 
0 0 0 0 0 0 
0 0 0 0 0 0 
-0.003639733477752874 -0.0001506798467104168 -1.287490079826537e-19 -0.0006069865054064939 0.0047728216972546 -0.004555641558657681 
-0.003689855311713789 -0.000140171031614026 -1.287490079826537e-19 -0.0005529701000632766 0.0047728216972546 -0.004504352852280162 
-0.004093718723501478 -7.954338588855172e-05 -1.287490079826537e-19 -0.0001618992546791352 0.004780535653763395 -0.004102860124892918 
-0.01774345295502354 -0.00383147924388999 -0.001648913001789492 -0.0008216563737634046 0.005400404703170195 0.009416226438784078 
-0.01980150670585887 0.0003116659813063626 -0.0006059058320172922 -0.005566636786657684 0.01402012296663358 0.002621639776827046 
-0.03785254217927597 -0.01935192505639175 -0.005145610170316434 -0.005976602928535682 0.02225318812838929 0.00541425122055329 
-0.04748056490138194 -0.0264969669324187 0.00368550594544952 -0.01259898498741683 0.02511594314499163 0.01515619928201094 
-0.004500292321451438 -0.003893008927378385 -0.006333565090396378 0.04652077886206199 0.02688668671261792 -0.02497360331206021 
-0.02573596587694081 -0.003990696863136464 -0.001648913001789492 -0.0008036951163456361 0.007645043670652836 0.01522513049285331 
-0.03031648613872696 -0.004425230296803826 -0.001648913001789492 -0.0007808344240660693 0.006080964755226685 0.0217038592624033 
-0.03061352612112946 -0.004292781950795637 -0.001648913001789492 -0.0006777428463825525 0.00620503023275098 0.02184360446301109 
-0.03199146913974962 -0.003680124022824211 -0.001648913001789492 -5.04069302625224e-05 0.006489314086758654 0.02278083592538804 
-0.02407062330359499 -0.003494700465794171 -0.001183337593740562 -0.0008316151998231397 0.00348385317472498 0.01805886970688269 
-0.02430688775345824 -0.003408789793133501 -0.001183337593740562 -0.0007870954143650732 0.003570482185636377 0.01815749632808555 
-0.02565903624806192 -0.003024345796159195 -0.001183337593740562 -0.0002557820534909135 0.004234307533875993 0.01878621804942875 
-0.01895422455795231 -0.001910323412199306 -0.000349181580607414 -0.00118737742966122 0.009444724497144941 0.007223622958410648 
-0.01897244081006417 -0.001959346814133382 -0.000349181580607414 -0.001182586123412514 0.009433974266730974 0.007264338586125803 
-0.01957303465864852 -0.001745671797578397 -0.000349181580607414 -0.0008883093712375904 0.009664149117714524 0.007630967334227068 
0.001611020223439258 -0.0003766074899623417 -1.287490079826537e-19 -0.0009881749282395721 -0.01710230654329814 0.01133350507631076 
0.001509179354378112 -0.0003590775051988677 -1.287490079826537e-19 -0.000945932866318476 -0.01707068952746519 0.0114016213523189 
-0.004961995229365975 0.04286573251374898 -0.01299994552795549 -0.01645267832553845 -0.009430932364088528 0.02086787182826435 
-0.03954029999584951 0.001878144233601733 -0.04089829992664528 0.01634234517395644 0.03104409684960343 -0.001463929564769912 
-0.02246990229436228 -0.04430587167304244 0.01962088550010372 0.0333832453740187 -0.007739298362562135 -0.001059324359513833 
0.024286551527217 -0.04115326346472332 0.02441610838646722 -0.01939466146547428 0.03810606745978281 0.01003022874133751 
-0.01820503076797522 -0.004012446984705339 -0.001648913001789492 -0.001002487321728147 0.01353039552658809 0.005739155001667639 
-0.021021953295551 -0.00431554441988219 -0.001648913001789492 -0.000911020158548832 0.01250473505623343 0.01002940032241562 
-0.01916702699922934 -0.00334865990571787 -0.001648913001789492 -0.0004094644942116647 0.01549587412380108 0.005294320457379878 
-0.01614693048486698 -0.006647456572595855 -0.001648913001789492 -0.002266773592331849 0.00414521753192803 0.006251201767175972 
-0.01555259237826208 -0.006500874914715665 -0.001648913001789492 -0.002351493695732229 0.004445440192129104 0.005244656379152886 
-0.01537523657293792 -0.005736558988655289 -0.001648913001789492 -0.001903954316684242 0.005984568760480077 0.002965018033915824 
0.01589634089323333 -0.009807913564436999 -0.001648913001789492 -0.005975338219887542 -0.0001125737449402008 -0.0219493221455031 
0.0184021021188535 -0.01009591422824192 -0.001648913001789492 -0.00652549489935512 0.001702439934424107 -0.02644977445045925 
0.02463986504982801 -0.009004346338469298 -0.001648913001789492 -0.006351369326135074 0.00667973724846503 -0.03865238753866627 
0.005459671221694984 -0.005866911515045624 -0.001648913001789492 -0.003812124035554018 -0.003382476574778605 -0.00626631960119668 
0.00860029696937868 -0.006129887079954233 -0.001648913001789492 -0.004063298703607531 -0.003192311813884458 -0.009216997453516906 
0.0155959671708317 -0.006069288630601121 -0.001648913001789492 -0.003538732323394561 -0.001792393645400041 -0.01771774454710134 
0.007872895285199863 -0.01183333824783101 -0.01629985467622519 -0.02748094649951886 0.03998262722448351 -0.004160516422619429 
0.01905748751803267 -0.03287220669321776 -0.01495538233390739 -0.01200773387361139 0.04477681175495692 -0.01284238059421803 
-0.01409618770189046 -0.03247281463383715 -0.02658533763014265 0.02134376439466647 0.03522556934411428 0.006111794263228275 
-0.02534095379344983 0.01954893408902265 -0.05580046610902015 0.02799844448437309 0.0041304629634334 0.06352229192650674 
-0.0254781455014694 -0.005233015294379996 -0.001648913001789492 -0.0009845922843665816 -0.0004921779273213133 0.02364429451870462 
-0.02612735590669487 -0.004902441089427599 -0.001648913001789492 -0.0005599799423313923 -0.0001149849395982443 0.0239500521950209 
-0.01541164446044793 -0.0009912339572519387 -1.287490079826537e-19 -0.001314189582380355 0.009032159546960034 0.003595261388964454 
-0.01536281431706153 -0.001021697967774838 -1.287490079826537e-19 -0.001343475475696826 0.0090082564904744 0.003569617047956112 
-0.01652978118670946 -0.0005110624550268981 -1.287490079826537e-19 -0.0007163754729577644 0.009485175875228662 0.00426080542947888 
-0.01676120895973791 -0.004056157469761855 -0.001648913001789492 -0.001239523970338131 0.005029755066512317 0.005428582355651191 
-0.02024866432755538 -0.004498853780099899 -0.001648913001789492 -0.001202073212502028 0.002957892748509705 0.01074852620550027 
-0.01759276725829715 -0.00340823978310698 -0.001648913001789492 -0.0006406139938304005 0.005653632450591669 0.003926660611569261 
0.02775950155301887 -0.01450439109688446 -0.001648913001789492 -0.006042753622701319 -0.02720758039253351 -0.008519077760149272 
0.02774372913949574 -0.01466254124415531 -0.001648913001789492 -0.006054378039369233 -0.02502225216976388 -0.01048437570612431 
0.03036904464868639 -0.01443446276738997 -0.001648913001789492 -0.006034438859247621 -0.02045225507872623 -0.01707418934971172 
0.01576552698167899 -0.008435615433644347 -0.001648913001789492 -0.005696953483032067 0.01348339766582689 -0.03166805454851028 
0.03813841351430186 -0.04972749495773723 -0.002048494751389649 -0.03074506630379049 0.003739385418037193 -0.01547725804748799 
0.05102663523028429 0.009674840560958943 -0.0178975050566174 -0.03433500882217682 0.05454696027282643 -0.07555961494071699 
0.03347071484416501 -0.05914130455375257 -0.00946150511621522 0.03277790479282772 0.0158295993521773 -0.03499954537472121 
0.03449668156668833 0.08578755864628877 -0.01343322241689453 -0.03607998635291963 0.004114589023971943 0.01515065165241488 
0.008822338983802046 -0.009243078030179732 -0.001648913001789491 -0.005026142173933823 0.01991531093176402 -0.03431944400804195 
0.007614285280754422 -0.003918729923558605 -0.001648913001789492 -0.004507216574769396 0.004163325483442815 -0.01885489329805999 
0.007922865883180674 -0.004093285605165921 -0.001648913001789492 -0.004880326173650292 0.005511469743384216 -0.02054333018158238 
0.006720090359180175 -0.00381356975229732 -0.001648913001789492 -0.004755317540224097 0.00900309724208569 -0.02289942397047924 
-0.0264792668144641 -0.004937747009201709 -0.001648913001789492 -0.001344571328330981 0.00304801194466059 0.02073775548009415 
-0.02653358530509418 -0.004972605700325652 -0.001648913001789492 -0.00133161521103917 0.003032858827794584 0.02084263531828754 
-0.02754433335085587 -0.004519264499351527 -0.001648913001789492 -0.0008390843053234446 0.003563104700281452 0.02106034776396372 
-0.01833893677525652 -0.003025855340343281 -0.0006336999100969221 -0.001843139268258929 0.005613910569927999 0.01028532094789023 
-0.01760907578758664 -0.003297560827015062 -0.0006336999100969221 -0.002168183497916144 0.005433066121827786 0.009877644120270628 
-0.01921681257944616 -0.002578666581750805 -0.0006336999100969221 -0.001420330489994104 0.006048843320364287 0.01074435687871352 
-0.0004575794989796951 -0.009403206188428345 -0.001648913001789492 -0.004246905891843738 -0.01427862327364682 0.01074840045582433 
0.0003661732115080098 -0.009848761666753971 -0.001648913001789492 -0.004658090306550692 -0.01368087839599162 0.009475640008300692 
-0.002065178318341935 -0.02089427801055035 0.01630331859669937 -0.0150210962083179 -0.02049799494352611 0.02475476070653714 
0.05376443844820267 0.009673327377538789 0.02440815012419666 -0.04164642119332446 -0.03299424768591767 -0.00962613000579212 
0.03982008215661881 0.02319630475470606 -0.002219235046023431 -0.01569013891252131 -0.01274200336720078 -0.04025479222211629 
0.048446638883871 0.003138963441907384 -0.0005954655254530232 -0.03743657130503396 0.08731258076050526 -0.01850026904349854 
0.02193893552008341 -0.01129464921361647 -0.001648913001789492 -0.008133328178621307 0.02111283688992908 -0.04598558629329598 
0.02862475987697327 -0.01176889842105554 -0.001648913001789492 -0.008985369417516445 0.02405144249144371 -0.05567960000077792 
0.02634670395807041 -0.01081593492616826 -0.001648913001789492 -0.008266311408189451 0.02718256214316597 -0.05639934156211664 
0.02013577106827095 -0.0132030807657845 -0.001648913001789492 -0.009589129123657543 0.01378470878166372 -0.0414764571483059 
0.02724255511391899 -0.01347469686288303 -0.001648913001789492 -0.01035992880406623 0.01663895497864225 -0.05133335961431304 
0.0259264484424143 -0.01259060286390626 -0.001648913001789492 -0.009639943943646629 0.02190503008028924 -0.05519077294890099 
0.03503972058287104 -0.007062808491352475 -0.001648913001789492 -0.00708356928209096 -0.02781585190711963 -0.01259432657208529 
0.03878144161242416 -0.007315987540319245 -0.001648913001789492 -0.007610327207060992 -0.02610936160645378 -0.01788159321179505 
0.04401806305052382 -0.00720033567186526 -0.001648913001789492 -0.007546878115974598 -0.02344370418457111 -0.02567101732401785 
-0.02690375490142083 -0.005357029746235017 -0.001648913001789492 -0.001427487856574101 0.002533687313349118 0.02226243956613169 
-0.02657438231878731 -0.005572415550100567 -0.001648913001789492 -0.001545577381376332 0.002340187768840934 0.02214127830082232 
-0.02830357136947097 -0.005033026299149716 -0.001648913001789492 -0.0008618613443815181 0.002930539550817012 0.02313460108079643 
-0.0133937637991756 0.01100790223613479 0.01395538006102073 -0.02722001765854804 -0.01667290371407303 0.03888927125441263 
0.005541027758040428 -0.03237052555496783 0.01408814198936902 -0.03183591088475882 -0.02298065717217549 0.05160388393374586 
0.04621795879276693 0.05782798970696922 0.002168208912211349 -0.05419005871730697 -0.01157745489790961 0.005842488171817946 
-0.005828426520010374 -0.02720752099140712 -0.03626809011498593 0.08786940688706082 0.008406189732248692 0.02425521552549266 
0.003401054763936239 -0.009099615777891748 -0.001648913001789492 -0.003911269871881671 -0.02814442918890942 0.02201335737780421 
0.003562881382258863 -0.008092347359947853 -0.001648913001789492 -0.003297126025439536 -0.02471982928237923 0.01827899583019326 
0.02212326779255681 -0.01013802592552322 -0.001648913001789492 -0.006021629606783422 -0.02409606006953897 -0.001499296907170804 
0.002272073942196136 -0.01133326616926759 -0.001648913001789492 -0.007223058939321309 -0.01058794747656912 0.0009776980882590736 
0.004509474590586056 -0.01064497686887675 -0.001648913001789492 -0.006971260217238783 -0.004458847652908719 -0.008116799371363609 
0.008179328880053394 -0.01568749766473515 -0.001454923248435769 -0.01049123203345688 0.0002026003451530002 -0.01659725444095889 
0.008764311792163228 -0.01680591379292363 -0.001118674342622658 -0.01139329356558942 0.003461789522421693 -0.01915743349790433 
0.007202491637280616 -0.01607867899457966 -0.0003362489303838328 -0.01106745328549364 0.01481101794527792 -0.02676431253116295 
0.006426533471000197 -0.00865873366053826 -0.001390259997317867 -0.007419992331500916 -0.004025999325851039 -0.008672692228807132 
0.008626199267324297 -0.009185347644841699 -0.001403192647541446 -0.008247946048401105 -0.002375222762169006 -0.01236088530395588 
0.008219075980498374 -0.00848397024152457 -0.001370861021982496 -0.007849481960433649 0.002938819587158561 -0.01719317103572647 
-0.01658040170136002 -0.006159925903368359 -0.001648913001789492 -0.003389698210863234 -0.01887416854453586 0.03324942896568044 
0.009446080240518366 0.01274563870898577 0.02507829129193135 -0.03171402026776644 -0.03319726924570834 0.03971501362159845 
0.02403089297623301 -0.007408660498452914 -0.007537733742986273 -0.01994898278818072 -0.04300226364906103 0.03289455167292368 
-0.02594724559310757 0.005370674501079978 -0.005687629064197361 -0.01876909762432884 -0.01409689699422721 0.02704463749809472 
-0.0379412188040884 0.03375159875788649 0.002772500031962214 0.03720992511514297 -0.003570765548558233 0.02044433820025575 
-0.02454707188023412 -0.005018763928085311 -0.001648913001789492 -0.001683129563530509 0.002793383336965616 0.0196355139063021 
-0.01487701778533957 -0.005595599757854756 -0.0016424466766777 -0.002595606908840999 -0.001698827020465241 0.0144285332921466 
-0.01449005697657084 -0.005818536389543418 -0.0016424466766777 -0.002736299220263948 -0.001814162383679715 0.01427825014576524 
-0.0161106371695751 -0.005317846521492504 -0.001648913001789492 -0.002068613044440581 -0.001379701663138889 0.01519890839531714 
-0.01599796346704157 -0.01018159099242498 -0.00147432222377114 -0.004863057747805239 -0.02266008685765574 0.03220113329265639 
-0.01635067375509636 -0.01079564436156036 -0.001454923248435768 -0.005347251722001678 -0.0208857995782574 0.0314873547285542 
-0.022456699195103 -0.009991424367832364 -0.001390259997317867 -0.004691015706081457 -0.01547025032235398 0.03326055876233179 
-0.007859244735346008 -0.01565327708318643 -0.0009182182641571474 -0.005686112838276863 0.01276710062468975 -0.01147614468944619 
-0.009441248441135771 -0.01641345655666721 -0.0007824253876681066 -0.005776681514989911 0.01891338760223114 -0.01367233642110118 
-0.006078346896905583 -0.01524606628633999 -0.0006013682845379679 -0.005032707225051791 0.02501681381126445 -0.02205754946308531 
-0.007460125863795975 -0.01149086381606751 -9.69948828195396e-05 -0.00747920252573131 0.02750128659629543 -0.02287048943269967 
0.000304554235498723 -0.01208293951984699 -3.879795374208364e-05 -0.008263401205375331 0.02959159500966732 -0.0310661708422616 
0.027452228103461 0.07985750947878049 0.005884319509429276 -0.05217737973288027 0.0198194267777056 -0.0443502671324142 
0.02909937494657679 -0.002819895348296189 0.007190342790148978 -0.01097519196320296 -0.002017352198846147 -0.02401225067414006 
0.02831218547379206 -0.01702698921549771 -0.001290478471877179 -0.001985798644497121 -0.005390894586160322 -0.02856015762162086 
-0.0148862927040966 -0.05554887246405624 -0.001437380378483539 0.1123754409152631 0.02041664551229285 -0.04361956110371535 
-0.02436810758591918 -0.008663129734075552 -0.001635980351565911 -0.006075290506849206 0.01264321624618497 0.002404425910367832 
-0.0201786356430632 -0.009337213163268476 -0.001648913001789491 -0.006963654818977683 0.01298714029733424 -0.002079752505481769 
-0.01391489815125626 -0.009064645881646363 -0.001648913001789491 -0.007012387098615489 0.01343352989030172 -0.008722491763729868 
-0.01963845579811331 -0.004989797495797855 -0.001293265120641005 -0.00273322846087723 0.0111665079345432 0.004279521453912112 
-0.01905292123325821 -0.004916256243927203 -0.001125140667734449 -0.002906988095065939 0.01161981883171686 0.0036079118612721 
-0.02179422377027261 -0.004054850148846373 -0.0006983631612148281 -0.002132040767527307 0.01316693988340888 0.005545923614265115 
-0.0145949512464764 -0.004394612134929197 -0.001648913001789492 -0.001370134990990564 -0.001616759843584044 0.01338585196587454 
-0.0144490093663236 -0.004455661229849871 -0.001648913001789492 -0.00143592568844309 -0.001626621412219883 0.0133107104414054 
-0.03794574687517008 0.01148141956897674 0.006390049377427995 -0.006057366151405497 0.009102732735441148 0.02714479370854906 
-0.05136622712824471 0.01055280046789564 0.006507771025451126 -0.008061819486979784 0.02158744720505335 0.02492266750828607 
-0.04836984071798304 0.01283136623643187 0.006409968697660594 -0.01019815115299239 0.02205892935861128 0.02226720500775899 
-0.01882267747045558 0.01094052171455553 0.01971510838918719 -0.04089363679752558 -0.01273558332659347 -0.002561653788454325 
-0.01160969484264978 0.02122619905989199 0.01994450375114721 -0.02118984854372187 -0.01939491043767988 -0.01265561570863163 
0.003095146668908553 0.02444660656362485 0.01501726341728376 -0.02001035865622385 -0.009038423619744787 -0.02426193118992874 
-0.009112353643401395 -0.001828938868110465 -0.0008736336544750653 -0.02821990248352179 0.02206618725261683 -0.01158372728908664 
-0.02153683126192726 -0.001682091633528261 0.002653027000076843 -0.0279283352495396 0.02174065991177668 0.003761892914726487 
-0.01012209506715651 -0.001025207366547813 0.004696583308803412 -0.03084842108542329 0.02174851283727145 -0.006440235742576393 
0.01534568767453412 0.01109977785800949 -0.03194614862858399 -0.007222803201051641 0.02536976514194398 -0.02912980661243177 
0.01351693089727887 0.009881247891256193 -0.03129742493249808 -0.007987964722396133 0.01120644929517544 -0.01411893732547734 
0.02575189209844394 0.01107644336989289 -0.02899781297911583 -0.01080189358432126 0.01095193696399527 -0.0264807504705473 
-0.004035221558463018 0.02624893613834035 -0.01772541822332076 -0.01090635957587445 0.002166479718537416 -0.01519647282866041 
-0.02308775776418339 0.02358910972203998 -0.01819488638970736 -0.01361050859212454 -0.01005453425072337 0.01736288826081343 
-0.009185677516664615 0.0251979547831593 -0.01680914934952189 -0.01691265694723069 -0.01222016105465087 0.006608610419062681 
-0.04664989533974517 -0.01561026556012223 0.004527932897407673 -0.01702885857023352 0.02894667238610952 0.03208457182784929 
-0.02546176309806531 -0.01438438640275619 0.006151727441090249 -0.01612438001407084 0.00370144970479827 0.03422481807141849 
-0.01409834063675161 -0.01219200154395801 0.005023747471294228 -0.01881654415220817 0.002076931060143751 0.02637642762015174 
-0.03856974876416559 -0.003365768341746649 0.01415978443948945 -0.008985000185556386 -0.006682105427755854 0.03137155876740941 
0.01226064284667023 -0.002118532070910545 0.03075703193394992 -0.0173858056319743 -0.01991647956185543 -0.01302189484599663 
0.01703875449506255 0.0005209375792562908 0.01277663317980707 -0.01131780274237793 -0.01042948316468693 -0.01465065901836766 
-0.0009198790569694699 0.001950501876070748 0.006938616762173738 -0.001500295201002336 0.007129385619113196 -0.01149721572495443 
-0.01153084767001953 -0.002050300263862185 0.004760313487454374 0.002389404898497966 0.01390210072392531 -0.01218349905080566 
-0.007708020757578198 -0.0005860910293654451 0.004899985181757324 -0.0002689866543066486 0.01399804085134681 -0.01596243076957517 
-0.001671496803148499 0.01404291535288796 0.03023990513336311 -0.02603855799548935 0.01051075819364748 -0.02091461153568129 
-0.001064877129570361 0.009574646224059655 0.008049664205916057 -0.01431467184569229 0.005437848206584391 -0.01555395574605018 
0.001650076982062662 0.02354790198539828 0.00626858250312688 -0.01741832181622431 0.008694350965889899 -0.02126500084995058 
0.01422562282693008 -0.03413840893850836 0.01016344651546172 -0.007853827537424122 0.02195455478254494 -0.02650054058519521 
0.01955778177652681 -0.002600385392465854 0.008409117183505734 -0.0008141315211841332 0.01242317498925179 -0.02951519232764922 
0.03598262544717954 0.01043639077004756 -0.005852204683510336 -0.002436571933030365 0.01870932964197508 -0.04642140829971555 
0.04728428674528166 -0.04326453304021456 0.01674105896629878 0.005147035498039514 -0.01632604769781512 -0.02079227028298832 
0.04289957632157507 -0.02488097694502939 0.01383814460002014 0.03368044083727498 -0.0306599031562116 -0.02289496610328802 
0.06626146138449789 -0.01156500128482973 -0.004847342619291491 0.0389334145324131 -0.008716023317155663 -0.05656683488159896 
0.04220287713766498 -0.05196095714371187 -0.007105019963041847 0.03434077851272206 -0.01043301442919768 0.006465890410577646 
-0.01255153445733966 -0.0539457309738199 -0.006029055863037169 0.02783650072677461 0.0009734928688076537 0.03824382776411429 
0.005168633416986889 -0.03397272928998404 -0.002504926490767234 0.02447056653983912 0.02439292135890613 -0.005522409594070686 
-0.04566689848211809 -0.03874571808891162 -0.002138596430451774 0.01267614689980322 -0.02401072915336093 0.05646422941725002 
-0.03017177992297532 -0.03403971960747211 -0.002086666258224088 0.01980329280612374 -0.02570283604625648 0.05572965600256092 
0.01126754998852786 -0.01313058658713066 0.00258462303861912 0.0217901241556207 0.01171293082547052 -0.01384229242389299 
0.02655369991956503 -0.03829192686931861 -0.006814806522999661 0.02503702877544094 0.004357253805720917 -0.01753676166649458 
0.01703138884463559 -0.0324269896202861 0.02229250559235721 0.01995731945192135 -0.02742331930919724 0.003595047602078199 
0.03313542382315456 -0.00592013823594824 -0.003037053037072517 0.02297851472664048 0.001577697774637904 -0.02341324214270723 
0.04267567760402079 -0.02155812535821524 0.02582913272085138 -0.03047488974998321 -0.00353462209829479 -0.0232793753121766 
0.03499094383158188 -0.01973234277373961 0.02997784949149859 -0.008990040901736733 -0.01261530517919006 -0.01897243744471378 
0.04620712389822836 -0.004116494039452584 0.01726415951056765 -0.009603297916336183 -0.002480558637416313 -0.03290295359528092 
-0.007652821387485954 -0.0006990402293716317 0.01236686422449034 0.0004227174491423828 0.009053196245910179 -0.01051956297540451 
-0.005287854882962632 0.00151278640031229 0.007538847414997735 0.001365984418674057 0.006690026146192656 -0.01322186151855665 
0.01146566147777984 0.003564460503524454 0.00467407821172261 0.00287192382805939 0.005551794152715825 -0.02359637965487656 
0.006404427933417545 0.005141890523355798 0.002478900102235945 0.002702602208819842 -0.02294388101198849 -0.002839055797911356 
0.01388709351418229 0.004922870488077249 7.16261621983431e-05 0.006763753912956386 -0.02424075327225576 -0.005426386183387852 
0.0156455962370867 0.00945318520434664 0.0001044236506571143 0.007882416724520162 -0.02309376853055319 -0.008258742213639942 
0.01837411405462142 -0.01485123716025595 0.02494800553825298 -0.03207412721197356 -0.02087256315560245 0.001280327425497427 
0.01963547377015866 -0.01989978075925689 0.01907960252951462 -0.02431746455841496 -0.0231721004213126 0.009611724845639455 
0.02448425025445521 -0.0005731849786332838 0.01870371338424714 -0.02447738159803362 -0.01969332954088264 -0.004133937344429328 
-0.01320478887768008 -0.03171293131771032 0.01199827727666214 -0.02060765438966745 -0.01615188342311531 0.01519766069324166 
-0.0385676022865248 -0.02590588165432494 0.03101330703687432 -0.01941853645018723 -0.03771828026488724 0.02784157878342807 
-0.04299518921293547 0.00644726437414057 0.01178774717745474 -0.01979528589235683 -0.01373230667388342 0.01187494070052492 
0.01135520663690866 -0.02559398448903676 0.03764008388653728 -0.04658017763911883 -0.01842126394818866 0.01323402813188256 
-0.01373606862724809 -0.003449530670952192 0.02375098863212728 -0.01026914029011361 -0.01758933528043645 0.02388812980518916 
-0.00486922285987352 0.01482775961373963 0.01421357791308976 -0.006229087765253542 0.01653398422605867 -0.02561176441170566 
0.005465648244235458 0.01403984999781798 -0.01761654177357958 -0.02154353932933716 0.03967465867219056 -0.02728884913538276 
-0.02294305670646616 0.02523857168872112 -0.01084026817460083 -0.02247629859553356 0.04347240256840406 -0.02128260921733876 
0.003251808691233865 0.04979961601941055 -0.01059416190112898 -0.02657784839119348 0.08747451501360759 -0.09140830991594739 
-0.02582152328493209 -0.02114472730376719 0.04916273748986994 -0.03550508047063016 -0.02268352296016894 0.02596808681714994 
-0.05122832035802336 -0.006951682835695168 0.05399067002189899 -0.025819044845952 -0.0294863720706561 0.03446450232951881 
-0.05059191113249931 0.02825437886886784 0.02804264594605223 -0.02330775624300881 -0.004053975852674 0.01891572505506134 
0.03938099726578868 -0.04384739762328625 0.008909593963818612 -0.02949742801525147 -1.274097227280038e-05 -0.008500321435517327 
0.02067514250561094 -0.04294367536454496 0.008321693333849385 -0.03349669137804947 0.0002323732927161549 0.002072788362948152 
0.02109324670607054 -0.02197197861849942 0.00131605894486367 -0.0231584030374611 0.004932931125584948 -0.008664692232579421 
-0.005879127494996467 -0.008133202968672825 -0.001116122214979568 0.002987981619053429 -0.02406399374198128 0.0163057741713897 
-0.005685562845360267 -0.01366601908446587 0.002221410807888047 0.002238762010808002 -0.02605323521139251 0.01711523401971757 
0.002284337575244324 -0.009492070291597782 0.000526405464531936 0.004717262113642109 -0.02546831180844834 0.0102566911166391 
0.002617460661779303 0.01650028794594445 -0.009696838795838318 0.007245191254703995 -0.01165625856020136 -0.00974147625933957 
0.007523279777530839 0.01606148627255616 -0.01036436127867613 0.008058627452795846 -0.01229386561486957 -0.01036740921477029 
0.01356860425638039 0.02024838447366757 -0.009697761365481642 0.007705599905690456 -0.0117660300869081 -0.01646880582152377 
-0.007288271355993236 -0.04321386925056959 0.0143353180683102 -0.01165216926515436 -0.01223000756379581 0.03431119488116009 
-0.01782506397099944 -0.03782540335929813 0.00926120143770234 0.0008504881795107085 -0.01160758448760005 0.03985391260481916 
-0.009722043176842117 -0.01656842672080823 0.01099889599823826 0.0001585351230456109 -0.006262812677745901 0.01882597819050637 
-0.0644441481181655 -0.01872096394329842 0.0002296805639986108 -0.01520145412997479 0.006818965328756911 0.07123280283537439 
-0.08698944380711128 -0.006791173674380389 -0.003424974655833646 -0.009911841235192932 0.01214693348703628 0.07988116903372618 
-0.06917074260697183 0.01473554241842343 -0.002665471383605413 -0.009342762014204519 0.024584565373848 0.03442740264844781 
-0.02776738908445034 -0.02816373014540574 0.05112590285137584 -0.04679152111989784 0.04258154253044569 -0.0115088611465149 
-0.0475023913356247 -0.008281415140090512 0.0192515684422816 -0.03313989636325179 0.05154203104899027 -0.019289936784668 
-0.05536151740977985 0.01377011120020112 0.01998374293696945 -0.0443173847247677 0.08266108520302598 -0.05070552855192152 
-0.01106472003467772 -0.08156804039888042 0.09585718016857982 -0.01680410109146259 0.06552097634831511 -0.08817804014450707 
-0.03858010415875678 -0.01474235043432513 0.07903253205724148 0.01896639947474486 0.07115131451115925 -0.0922096922076957 
-0.05079226406002756 0.01197213068241385 0.05346982325068717 0.01963555975786833 0.104537974288773 -0.1113834265611964 
0.01206940759199875 0.00209646196493567 0.02470650395787364 -0.02500431365662814 -0.01324612875750893 0.03975850969561084 
-0.02535338172972882 0.02401840747344073 0.007371902332611449 -0.02180580004282767 -0.007089443379747417 0.04832003337473498 
-0.02436785045805166 0.05173628674487397 -0.001570085810698343 -0.01570015373710203 0.02320426152429758 0.01755119562950511 
-0.00139228931966501 -0.01135701589914853 -0.01997189076279646 0.009985099324698106 0.0165472128489156 0.03320884228239856 
-0.02003828456386436 -0.007953347199800145 -0.01880298844936974 0.009070730381821594 0.01501701328767379 0.04675169156634174 
-0.01306428503579959 0.01360469278813896 -0.01864481537897907 0.005255400286275972 0.02225353154191584 0.02248609315756489 
-0.01043936115188377 -0.008208436597147546 -0.003572838721180419 -0.001395490284687959 0.01199456016696297 0.007529381759108938 
-0.009448078598829283 -0.01105299687297544 -0.001886937608965693 0.001671160928453931 0.01257858851143852 0.006509064773548542 
0.001938262238333632 -0.004287689650077696 -0.0006498295440046896 -0.002500633680757251 0.01252275627714527 -0.005753078428191254 
0.004320038675090672 0.01070847420104037 -0.01559565140172843 0.0054344214993052 -0.01434334380007401 -0.007108902342593485 
0.01076390180720801 0.008245908186405602 -0.01339791510254251 0.005902453599184961 -0.01652231849433862 -0.009498860730456754 
0.01768037757323963 0.01285073223802112 -0.01054688470721579 0.005959997335303585 -0.01493462617144318 -0.01837979040474007 
-0.01287457138911365 -0.01778913229083039 0.002819568370707176 0.006827909094577343 0.002924665635485641 0.02471258565309596 
-0.02120261045959208 -0.01089830410353583 -0.00669900631122151 0.01933595943136304 0.009804573854001941 0.02322221757495083 
-0.02363158262657992 0.007563469130942127 -0.00652361615007532 0.02547014681074899 0.01920609212431992 0.003389265826412729 
0.03431211019941459 -0.0183283377412605 -0.01384120163915201 -0.01281263780544033 -0.01809763538426549 0.006988964299063428 
0.02683916808500584 0.005168373226362575 -0.02938007907373969 -0.0004631368683266787 -0.01082690661090406 0.0004193563792490983 
0.02299980808894042 0.03127766288637596 -0.03072439209095307 0.005479785340093221 -0.005409809420591724 -0.0152828561786009 
0.07835633351597254 -0.08742584360507159 -0.002133158206525759 0.01318562521156793 -0.06678367695751687 -0.005591147232139053 
0.05081354034199663 -0.08021996269288428 0.03019398932261811 0.03385005824410912 -0.0774484328202233 -0.00181776792794489 
0.04258383689404555 -0.0521033315648547 -0.008131053027292593 0.04873906931049871 -0.03061277287623432 -0.03124600494380967 
0.05308410190647204 -0.0747371837784877 0.03830645902211194 -0.03671908113963366 0.02198126154639041 -0.00823752342352093 
0.03663325335474491 -0.05987228557120653 0.04985559269859691 -0.03231381815275177 -0.005430730541462218 -0.01592394614192695 
0.02886313480954849 -0.03276709626266241 -0.009270047257499971 -0.01640376997491799 0.06012719191475072 -0.0440249883111198 
0.02696883152321351 -0.04859060895956162 0.01150270270733589 -0.004365221508759588 -0.02771073691472826 0.009764498654881494 
-0.002400478689410741 -0.02254047382480279 -0.003974111543178972 0.01945314526268511 -0.01086286252111511 0.006470979496986455 
-0.02135275479293202 0.005492077685114199 -0.001485282240467556 0.02768332477003946 0.01062587324064176 -0.01852639543787479 
0.01693897038749399 -0.002324071127428223 -0.01078561385429655 -0.004197620816516025 0.001138622162568953 -0.003641426523616741 
0.001773628786812924 0.009464105296411326 -0.01412939471888566 -0.001923875530486602 0.00179782669440135 0.001322596075463596 
-0.003433517738517133 0.03293536745705013 -0.01334923763564023 -0.003598993696668814 0.006775744472270124 -0.01379821720796139 
0.04110739273161625 -0.006079349834034954 0.003066514931134583 -0.01963162877925979 -0.04393813418059608 -0.017931735144296 
0.04714383232969915 -0.006440229807832435 0.005396431113801706 -0.01877183119265106 -0.04423623359073414 -0.02114994589143837 
0.06682141822279596 -0.0006937951313836161 0.007178692301075342 -0.02479361864824363 -0.0431651617685073 -0.03774091372747619 
-0.01283675275491291 0.01536427610141511 -0.003864816997107892 0.0009008299858880393 -0.02151419080845021 0.009510106773241976 
-0.009356677364583557 0.0138926080533668 -0.001358159343962136 0.001824363505500462 -0.02181421653213769 0.006848295966182912 
-0.002611273269136839 0.01737401351784717 0.0008017112379383258 0.001709497202820863 -0.02102884120089388 -0.001744781977645605 
0.01789011014589911 -0.0181256135464793 0.0007086249541609429 -0.01005271273172769 -0.01274226263497775 0.0235383870370408 
0.02200145249108104 -0.01098280628930291 -0.002705718932734614 -0.00669143465099774 -0.009719477600453517 0.01523223753989187 
0.02538425670864357 -0.001471714972386048 -0.002190704344136272 -0.004643386659142003 -0.005352627787531582 0.001154817237541044 
0.03312929901141516 -0.0178678466892681 -0.02129110463995328 0.02871406263524768 -0.04049164080021384 0.01870110533113651 
0.01816358161682311 -0.0002269275286839315 -0.02748466731579228 0.04639372709742749 -0.03683488929974701 0.01130768607743546 
0.01969141289462165 0.02255107943291017 -0.03427371545258343 0.06218459517258082 -0.02583727127147645 -0.01210819966959006 
-0.008799558902516701 -0.0586571864010817 -0.005597181531185933 0.009869429478101224 -0.0001973594069229979 0.01648655911001931 
-0.01588546385008736 -0.05403636001864192 -0.008435739651695712 0.02309626164440093 0.007797349245335149 0.003948233981518407 
-0.01749443804044114 -0.0342510505982719 -0.02527804141570941 0.04381621226345424 0.03853327715457066 -0.02820647426108007 
0.02072079742529581 -0.07130112156102018 -0.03751728504640821 0.004103876877569118 0.05486623148177063 -0.02328877788107489 
0.01018076622716571 -0.05774388708315387 -0.0248745711543741 0.01909431176047729 0.05105974536664185 -0.02985216389127761 
0.00307825053443852 -0.03641511225481601 -0.05605047467563238 0.02826858806119258 0.08455959967036757 -0.05214165008183607 
-0.01134921324110753 -0.07120223641963269 0.002128598272666569 0.01567121951709757 -0.0007850803478842061 0.02705966973190831 
-0.02682491260298285 -0.05696755708790548 0.01384816468836031 0.02607810819582217 -0.002676036587637772 0.01516686448436306 
-0.02263860951825471 -0.04259241349419997 0.008136313506465905 0.02539351715020505 0.014601179730042 -0.01624944392700082 
0.02009329461932589 -0.05928657630099574 -0.02284869048778743 0.09049120618234585 -0.02713443744343561 0.01658075668259607 
0.01564756230707475 -0.05057548667262515 -0.03486516754361284 0.1030887725293063 -0.02461132430178704 0.01754734607073331 
0.02493327565843456 -0.03747743136237575 -0.03600808537355506 0.1117006117497668 -0.01945747776852415 -0.0008320665608534371 
0.0006563221038624455 -0.03087936206530167 0.01372043470940774 0.0031678411517369 -0.01862589989510739 0.02119235730783869 
0.005910990819761593 -0.0263685949293879 0.009430060281196813 0.01047750175398092 -0.01703444902584589 0.01550938818626298 
0.02746678289983394 -0.02548215430946812 0.01158984523435898 0.00610266436073226 -0.01615621074520763 -0.002853725425745141 
0.005118939958985615 0.01377273583987958 -0.003078368910131959 -0.004419514667891924 -0.02302705934615799 0.001883637755089527 
0.004336975298515786 0.01174201215258651 -0.0006491038908929652 -0.003237501060376744 -0.02417863945526649 0.003050605966993081 
0.01136145205774597 0.01465486868504053 0.001458396104658933 -0.002887622177977409 -0.02108995004982616 -0.007241332053876837 
-0.01013314152765579 -0.02294359012891027 0.007972963221780599 -0.01814226962068303 0.0004765646929891304 0.02925815503677833 
-0.00967533795276071 -0.01730801595081867 0.008615406609189141 -0.01364606003466725 0.001227234302576074 0.02699102352000584 
0.002876014605607639 -0.007931345003886713 0.009714651492308957 -0.01615580518701664 0.004783494297365597 0.01020677047970626 
-0.02444122373551193 -0.0002244183761118707 -0.009679056178533282 -0.02185843130938359 -0.007019895600461191 0.04466744076978808 
-0.02329352160527491 0.007914567952975231 0.008201442612149541 -0.01707695197033039 -0.00788135138038162 0.02391325053941896 
-0.009083114782024899 0.03157348590025098 -0.009861561769380115 -0.006064907943047955 0.01324836010151043 -0.006590561795670805 
-0.04534571595500983 0.0009949298200733756 -0.005271600215747096 -0.0365491369436896 0.03111949004144093 0.04106074144501243 
-0.0617825460284112 0.01416540237264352 -0.0004680281007468284 -0.02683642565802765 0.04068937650080165 0.02627553601023319 
-0.0694615272072882 0.03427046132452956 -0.005676880314855631 -0.01865731721204972 0.07226069530533642 -0.007723017368425485 
-0.02344947343030538 -0.009807312572656606 0.008117932419074865 0.003808336397149512 0.03985785128723536 0.002390501378019115 
-0.03906670525698767 0.008695104805076705 -0.003741954698690187 0.01456869651818876 0.05500136730698956 -0.00724734012021014 
-0.04690975349362426 0.02867920213703184 -0.00140047996319281 0.02424952102637145 0.07588833562826111 -0.03988961602710655 
0.005668138520017034 -0.009467122138707023 -0.01282630081953017 -0.01983531272735857 -0.009183821673212553 0.02829350878426768 
0.003605859099925816 0.004391399203548827 -0.01518168605536347 -0.003741402960350619 0.003092236915968253 0.008888940254971186 
0.01099510269262566 0.02578332572736253 -0.01591474974147634 0.002443321105734669 0.024187187704259 -0.03100176480801814 
0.06936162109468805 -0.005039432840252031 0.01978029349138762 -0.03386726307658031 -0.02484540476888552 0.002086641501087887 
0.07800180600620019 0.006564817235284802 0.01705007036017854 -0.02905488265337521 -0.02256140305408368 -0.00745804260915493 
0.08718633997193416 0.02197007181469208 0.01613136829950989 -0.02827803144261001 -0.01555349102388838 -0.02810429091911813 
-0.01354745385055066 -0.001204615436939434 0.0007124382059984347 0.003087904463966982 -0.0193281263591406 0.03679846644556077 
-0.003099724386631244 0.003475571173721292 0.001143283188441662 0.001537808753378847 -0.02009423036027181 0.02877318930902543 
0.03173893629340383 0.0002758957041997101 0.002981456520153203 -0.007244785815531056 -0.01816789545574189 0.0003555309283497466 
0.02642706695313625 -0.01065187638040094 0.001108135429551823 -0.003229850711799955 -0.01087308739291433 -0.01089989208451399 
0.03020508344697406 -0.01153517430359658 0.002926495533079118 -0.002271495138212527 -0.01095758478181094 -0.01567988109770355 
0.03679861224518845 -0.004154546796283621 0.004060312456229964 -0.002155395012433925 -0.008050324357315277 -0.03016579382469019 
0.04278817443389347 -0.01403122293730828 -0.00317185386268711 -0.01555625063192861 -0.01106086300337201 -0.01253918981556903 
0.04558457107412702 -0.00675196529983393 -0.0006649747882782421 -0.01453236865130575 -0.008825216651331892 -0.02180083637887596 
0.06522538372311099 0.006568930176490301 0.00212578295372737 -0.01750175713982782 -0.003104281467345787 -0.05021696614781255 
0.007414379359150559 -0.01608889729823013 -0.02331761179807717 -0.01808406912303691 0.01809960162502761 0.02447430786849316 
0.006858677862347315 -0.006916389140257567 -0.02089886281790951 -0.01488832247885914 0.02624181269769174 0.01044434690250819 
0.01883556883191317 0.01659467380624792 -0.0206635784272714 -0.01434118405514198 0.04253609709968398 -0.02825438493387967 
0.001376703405358121 0.041960713744757 -0.00711670944778593 -0.0112788032875809 0.01111391382161311 0.002981626739956737 
-0.0009411817036890373 0.05580822656109546 -0.005655416379725621 -0.009981760812370255 0.01733795943087223 -0.01119921207617705 
0.009270007755065476 0.07364401078828173 -0.001519502950993168 -0.009226850045939745 0.03869064560754721 -0.05417384895649948 
-0.001077577308851399 0.008466311294703703 -0.008045245568978669 -0.003852351077772314 0.03636574962861577 -0.01550109573531155 
0.001624894603738276 0.01866765612728059 -0.01154947875276482 -0.0025460584973253 0.04586729272559283 -0.03063357191091928 
0.02180641064857581 0.03782228421741393 -0.007816626923182425 -0.001733956278145934 0.06373659675761914 -0.07743995814942821 
-0.03244389532996746 0.01805328868617681 -0.001821694711940036 0.003898841772271721 0.005036681870639772 0.01444989035686579 
-0.02668798356760157 0.02798604238231081 -0.0004640710256952419 0.007136073655970519 0.01101456936680572 0.001041774546254295 
-0.00762764714637371 0.04534501576227359 0.003696399392846899 0.008810663486404711 0.03060752658174351 -0.04242884566905312 
0.03269426616122112 -0.02259404175550317 0.01477102585998846 -0.02799237202164788 -0.004563074440094406 0.009978329556114237 
0.04170464092541596 -0.0145356683022205 0.009458397414609189 -0.02250933267358129 0.0008260664349496529 -0.003841198021455015 
0.06253276524454111 -0.001872681916334141 0.01028775690548488 -0.02343150215237223 0.009034867463704497 -0.03379088786431623 
0.005561858995301539 0.002279946004649726 -0.005639333762634547 0.01841995464822434 -0.004690136112393407 -0.01325833933833497 
0.01581669924718095 0.003845521605107249 -0.003478499840275932 0.01692592213262909 -0.007020719181191391 -0.02317861642220774 
0.02640318876969085 0.01060440737099639 -0.001519941646694122 0.01729985279200596 -0.001321452174487878 -0.04498554023884732 
-0.008659243357774076 0.001155351881906452 0.0002614003924969092 0.004694434433922989 -0.005657311593233575 0.01029147099770064 
-0.0005528310196462777 -0.0007053472142198586 0.002640653105516198 -0.002754046333590681 -0.002894641478986005 -9.617572680484857e-05 
0.005740642350868865 -0.0002718041689911744 0.0004691239001378168 -0.008112403808180031 -0.002362713077743528 -0.002749538313862575 
-0.003973123370343911 -0.005460050949456564 0.001511407530355921 5.274210004098572e-06 -0.003321373296125827 0.007083560328646876 
-0.002555781747156856 0.002810171936249499 0.000737879643281526 -0.00219650068314208 -0.001369016036661409 0.001854838172324329 
0.0001244809981699056 -0.001346720081713866 0.001745062495477676 -0.0003131589662144272 -0.001101647467447697 0 
-0.003538411887981394 -0.001079762593612816 0.0006543806149478847 -0.001031228033909243 -0.0002356218007268127 0.001405336385250055 
0.00703151171202309 -0.001428054576413383 0.00100880953842928 -0.01237988934161884 -0.003055590487876527 -0.003865687332173441 
0.0002698344930764731 0.002578547149945203 0.00182887390488817 -0.00367645224414546 -0.001847900221683315 -0.003883436204272648 
0.001327995014800333 -0.003421677091132539 0.001792498310610849 0.0009899385691797978 0.001164322500333062 -0.003077769333419355 
-0.0002929203264039107 0.0008681743254855888 -0.0002112760475963495 0.0005465109328060778 -0.0006832111247958695 0.0008132858561196649 
-0.01725100540352288 -0.02607339083469632 0.009124804016326456 -0.002435956240361841 -0.008122207979404616 0.02765831060730134 
-0.0006585618660553075 0.0001655769222149504 0.0002164441141055094 3.372676311798999e-05 0.002917083638473347 -0.001382419050947214 
-2.954385925635241e-05 0.001607958978761993 -0.0002297882632143204 -0.0006114573673503343 0 0 
-0.0002292346666653804 0.0005832982675357265 0.0001301736049800215 -0.001439819827611566 0.00248607105348283 -0.001500606622685811 
-0.006643636574241525 -0.01097358242743752 0.005915714490422935 -0.00668105412726675 -0.02275477756636942 0.006422071532861997 
-0.004982481602094984 0.00309084345442934 0.004529112258054992 -0.006541647299891709 0.003270631924377905 -0.0006576298041247822 
-9.396088920650717e-05 0.001921048821619436 -1.705977295329364e-20 -0.0004333430123028756 -0.0007263035182356318 3.016367712339893e-05 
0.00104907730617771 -0.0009758887073796252 0.0007449658365208624 0.000433775947193673 -0.0003577398209955373 -0.000755672608891534 
-2.689329607532404e-20 1.97276373593846e-05 0.0008391956834295373 -0.001333636965118195 -0.0009069349922100978 0.000427398488451931 
-0.008019741032032755 -0.0005543302193748481 5.81671971476581e-06 -0.001569995871509423 -0.0006847726845210859 0.005799174583323032 
-0.002140026751858729 0.0003936284925878679 0.000124963604368935 -0.001654336324880818 -6.520298842522843e-05 0.001548199773984482 
-0.003527028650560421 -0.003780373702908431 0.001194521966399646 -0.008225574609085807 -0.001513085984644622 0.008758646269580145 
0.01540349383996063 -0.02497532525623198 0.01497341772382739 -0.02787414099690935 -0.003722470447111615 -0.009614287001895764 
0.001517052307016555 -0.0007503522763641496 0.007596450605873424 -0.002583216954081962 -0.003361526380842 -0.001004943732362374 
-0.002565534714553947 -0.003068623812664119 0.000165542648083516 0.0008938151212844553 -0.00151251953099313 0.001882667548106148 
0 0 0 0 0 0 
-0.0002877512260368995 -0.001818310102164405 0.0002959801871757078 0.0007183660607806314 0.001107731006740921 -0.001838043166037158 
0.002137256899753731 0.0002638370962655995 -3.87834901135128e-05 3.800348980772512e-05 -0.0008698265312972558 -0.0008087581005025862 
-0.001587571725045327 -0.0004859213782167917 -3.878349011351277e-05 9.293566736621907e-05 0 0.000722452157750375 
0.0006724469900068039 0.001683082596779191 -9.672938549246742e-06 -0.00113500074784532 -0.0005437398370234751 -0.0008989551315348817 
0.0104951604460615 0.004239277581485237 -0.00733756152499833 -0.02563033649844529 0.003115530555196774 -0.006310700068100596 
-0.003367840511888221 0.000890989883657109 -0.0003161627644271722 -0.000830245036991838 0.001062773800647828 0.001027261990138214 
6.776263578034403e-21 -0.0006524849358282197 0.0001055560771908233 -0.0003622964121650798 -0.0008700576016913014 0.0005065343489533268 
-4.974336220381391e-05 -0.0004943612681143624 -0.0004230781107136459 0.001899221032681109 0.001483604939779843 -0.0007958898621041693 
0 0.0002363711140974218 0 -6.387576621992385e-06 0 0 
-0.0003554104525088334 0.000260425952457784 0 -6.145381349081251e-05 0 -4.815234794291572e-05 
-0.0001261185396211033 0 0.0003069964566944086 3.388131789017201e-21 -0.0001501033491448562 0 
-0.0002764717078812057 -2.927384967217358e-05 0 0 -0.0004702644383994785 0.0006209912321569044 
0.003065018153902668 -0.001497065485426638 0 -0.0008788610786902901 -0.002025713055243704 -0.0008454171549355829 
0.000213425748932038 0.0013648108107886 0.000183176832587413 -0.001952093802625972 -0.0001531172761489606 -0.0006573685577905522 
0.001468884469477559 -0.003306310989536995 0.007951940938836785 -0.002102549218987259 0.0001971747362033637 -0.004832001229362676 
0.001668873011575133 -0.0008530480398376956 -0.0003362118561218492 0.0005852945382458221 -0.00134126890957885 2.648111180069682e-05 
-0.008651715470336765 -0.02420899629254145 0.03270499920898883 -0.0305325825225722 0.005805146032622479 0.007796491178984167 
2.329340604949326e-20 0.0006811895559748342 0 -0.0004077167925467099 -2.371692252312041e-20 -0.0002744905433096846 
-0.0002292346666653805 0.0001369679206236364 0 0.0002698943463431086 -0.0008240309820068022 0.0005938778358119603 
-0.0006712044111674053 0.001394341793009919 -0.0002948831796272293 -0.0004808065554366452 -4.573276274830587e-05 0.0003778525964709283 
-0.008692278978770777 -0.01430552381600533 0.001782523763998698 0.001262825716955821 -0.003291451827212043 0.01377026079791504 
-0.002140026751858728 0.0001299885221020998 2.541098841762901e-21 -0.0004542722673480988 -6.776263578034403e-21 0.001126528515323928 
-4.974336220381393e-05 -0.0007255421012982645 -4.170094669161289e-05 0.001677697456298419 0 0 
-0.0001261185396211033 -0.000322424223942375 0.0003069964566944086 0.0002977669941731569 -0.0001501033491448561 0 
-4.235164736271502e-22 0 0 0 -0.0003798555862927013 0 
-0.0002587785259217323 -4.132512123183683e-05 6.88214269644119e-21 0.0001403489762856005 -0.0004310125849905128 0.0007672661901780438 
0 0 0 0 0 0 
-0.0006343558066348739 2.746403676905943e-06 -0.0002964870404533291 0.0009452475101227153 0.002463688763257028 -0.0004189107340164623 
0.0005106735312591633 -0.0005103129364963704 3.304112789595393e-05 0.0003051035263898602 -0.0007435713131256206 -0.0003010136731976397 
-0.0004790973416583214 -0.001452285415654488 0.001026763115880223 -0.0004936256175187796 0.0003385975634303952 0.0004502054262810871 
0.0009572456199237057 -0.0006594464223241333 0.002933051972385112 0.0006351869454819161 -0.0006067523133401018 -0.001016831465096338 
0 0 0 0 0 0 
0.001216744607981752 -0.0001346864513028329 0 0.0001534166806172195 -1.355252715606881e-20 -0.00191554341296504 
0.001032871887989465 -0.001072425194237631 6.352747104407253e-21 -0.001098746851247264 -0.001423156173216559 0.0001794231517531786 
2.329340604949326e-20 0.00055457173429476 0 -0.0003065577303317741 -2.371692252312041e-20 -0.0002744905433096846 
0.003392805565432918 -0.003046074597741966 6.776263578034403e-21 -0.004399694509158211 -0.003563125218019625 -0.001164689017667489 
-0.001906517537365177 -0.01082062936867628 0.00491088253471215 -0.004472501914475792 -0.005027267342434237 0.005043265289908167 
-0.003156950182551342 0.004285131348081279 0.005687606553332137 -0.004699886531840823 0.00342780708061711 -0.0005384984932769426 
-0.001850250700597901 -0.001321659207856003 0.0002045159657239112 0.0016043756756616 -0.0004728322164114692 0.002310822692171803 
-0.005975913868247417 -0.0005341060135501774 0.01290100581417771 -0.002939565280421564 -0.008474357588924763 0.006044412660613232 
-0.0001092166950469383 -0.002065900151174837 0.003929258602013077 -0.0002586226389267406 -0.003520637292068132 0.0007607243650419181 
0.001143938537770698 0.001302722920120114 -0.0002112760475963495 1.652439099925163e-05 -4.573276274830584e-05 -0.0006227852061795223 
0.00059486332733786 -0.0002320821707659328 0 0 -0.000167237592856832 -0.0001640195381394448 
0.0005948633273378601 -0.000399758662341974 -9.192247647298106e-05 9.609222646807512e-05 -0.001037295194548139 6.802426750419613e-05 
-0.0008914926419246101 -0.003491467708627358 9.317362419797304e-21 0.0001571462900384791 -0.0004597699690233593 0.001674377882799468 
-0.0006349859859426777 0.002200912083073549 0.00189735975758185 -0.002066940072411778 -0.001196071923845836 0.0004072087053039893 
-0.001926625878015195 -0.0002569323367551858 1.810839940940365e-06 0.0007488831922768365 -0.0004106090352383845 0.002433774436105636 
-0.0002292346666653805 0.0006811895559748345 0 -0.0004289320025650065 -0.0004310125849905128 0.0004927756468683592 
-0.001259342137616987 -0.0008279131145378243 0.000808999574353449 -0.0005240862495815499 -0.001909218087074795 0.0009712759953460344 
0 0 0 0 0 0 
-4.974336220381393e-05 2.032879073410321e-20 0.0004739422449597591 0.0002226936932949724 -0.0006814206643879461 1.355252715606881e-20 
0 0 0 0 0 0 
0.0003319621299589679 0.0002174464537135942 6.352747104407253e-21 0.0001467598589609419 -0.0003095705414241346 0.0001985325502980784 
3.388131789017201e-21 -0.0002471806340571811 2.541098841762901e-21 0.00068664224996115 -6.776263578034403e-21 0 
0.0004264614396159244 0.0002288854265280014 0 -0.000448582750870919 -0.0004288623702410878 -0.0002744905433096845 
0.0004930402067192959 -0.0009070763789524041 0 -0.0003404599488531414 -0.0008700576016913022 2.015810895814336e-06 
0.000493040206719296 -0.0001033734793411193 0 -0.0005313504625032587 -5.505714157152952e-21 -0.0005045185380575107 
-0.00308004501172858 0.0005586500728564078 -0.0003031985240693311 -0.000511642533280985 -0.0007560003290511867 0.002592271844237961 
0 0 0 0 0 0 
0.0009042675768389743 0.000375439441113165 -4.198563835214965e-05 -0.000188701821895743 -1.694065894508601e-21 -0.000587049848341532 
-4.974336220381387e-05 -0.001038283603482025 0.0003376811338673216 -2.008659126908688e-05 0 6.054871543772493e-05 
-0.0005088674463215759 0 0 0 -0.0007102675663028813 0.0008878337417153107 
0 0 0 0 0 0 
0 0 0 0 0 0 
0 0 0 0 0 0 
-0.0001222841531277237 0 0 0 -8.772118085311122e-05 0.0002109963269781354 
3.388131789017201e-21 -0.000373798455737255 2.541098841762901e-21 0.0007878013121760871 -6.776263578034403e-21 -3.599890025830776e-21 
-0.001508290296475875 -0.0004780158448419196 0.000751687501529928 0.0006210753434467057 -0.001924332932714589 0.00260265945608527 
-9.877993228210935e-05 0.0002163360147689677 0.0009132513999954658 -0.0008969873711062423 -0.001239565890441842 0.0006566012478481136 
-0.007590889034914778 0.002716984980214188 0.007407129952289818 -0.004435158815480147 -0.0002302089120790206 0.0006583024688005516 
0.001399286980207445 -0.0004019010231018046 0 -0.0007649339308333605 -0.000167237592856832 -0.001671740847781363 
-0.0002314001227728214 -1.501855146039723e-05 0.002293857247385555 0.0008693378481614468 -0.001735235758555914 -0.0005072104084200448 
-0.0001003542529310886 -0.001040103649248605 6.88214269644119e-21 0.0006866422499611498 -0.0001672375928568323 0.000727167601390359 
-0.0001216313492833072 0.0005161314797118203 0 -0.0007425269469399444 -0.001761577494948281 0.0009664212698059201 
-0.003305279199011849 -0.0007138502806793443 0 -0.0002078117241724892 -0.002516986212849475 0.005740390376519165 
-0.001813363024565478 -0.0003818781057379925 2.371692252312041e-20 6.776263578034403e-21 -0.002634233777036695 0.004153465509628083 
0.005186181751727388 -0.02029321289421379 -0.001517947436068361 -0.01117957192262396 -0.008942263633831962 -0.007001170617210065 
-0.003680588297209927 -0.004897123394536319 0.005034712610523582 -0.002577012699540671 0.00371634242996273 -0.006369571489456292 
-0.0002347326249299444 -0.00757638061431776 0.03190427027783112 -0.002938170491492326 -0.007883101536046579 -0.009823806537753412 
-0.0006026815269928413 0.0007851606668300115 0.002483853710181962 -0.001180215587861671 -0.001025793831486173 -0.001355509372016704 
0.004357626945593627 0.008019089936372582 -0.003218040097562081 -0.01056704767877354 0.01167932459870851 -0.02753287680256678 
-0.0005683888969703684 0.00217670563078445 -0.0001689164370628909 -0.001538286507835444 -0.0007871069238746931 0.001035750112390713 
-0.001268573374691139 -0.0002471806340571811 0.0006569594596743637 -0.0003754557081812353 -0.001017121672786056 0.001450360641880932 
0.0004248293048527947 0.0004594026431497176 0.0007186485350057912 -0.0007126896077991226 -0.0005647891468616557 -0.0006081235804188891 
0.002053285751870306 -0.01480179104228246 0.005218906768226849 -0.003686518559660457 0.007401455747058446 -0.002099818554470762 
-0.0008142760051875916 -0.001009594231209395 0.0002415471681366687 -2.121521001829688e-05 -0.0009014764065616339 0.0019964698252007 
0.00265213590485925 -0.0005002807101167596 6.352747104407253e-21 -0.001421982754893526 -0.0006391618249005959 -0.001984181337139698 
0 0 0 0 0 0 
0.003196315110433143 -0.001814115693767471 -8.360713203088006e-05 -0.001177961999368244 -0.002140550637699833 -0.001066166746567599 
-4.974336220381393e-05 -0.0005477405592629878 -4.170094669161289e-05 0.001441896430629401 0 -3.153269567812825e-05 
0 0 0 0 0 0 
-0.0002130356906838866 0.0008661656673607823 0 -0.00104265791873841 -2.371692252312041e-20 -0.0005127484459653272 
0.0008198982218571736 -0.001975269421125292 -6.776263578034403e-21 -0.0005384921679658906 -0.006388318146992862 0.004379787204634609 
0.0005641113422216918 -8.252366200169475e-05 0.0006062549433010583 -0.0001214873805548978 0.0002258531731788675 -0.001661054718510406 
-0.002140026751858728 0.0009328644094948257 -7.973553811985642e-05 7.890749021209238e-05 -4.150461441546072e-20 0.0009057236846765321 
0.001186691829197035 -0.0004963022439741093 0 -0.0009333044753334303 1.355252715606881e-20 -0.001214318870209596 
3.811648262644352e-21 0.0002008298118813232 -9.317362419797304e-21 0.0004462000203913763 -6.847731982958984e-20 -9.476737822862506e-05 
0.000593345914598517 -0.0005494190451472927 6.776263578034403e-21 -0.0005266709207174824 0.0003844452709613715 -0.001617489196555194 
-9.740878893424454e-20 -0.0007128372667687504 5.086413424611355e-05 0.001348967075492826 -6.787332629940577e-05 -0.000563846056460527 
-0.002107142395069819 -0.0009795171810321488 0.0006139929133888171 0.0002662692594060692 -0.002090278025131971 0.003950640764357789 
0.002170014303814919 0.002153927896001466 0.004590581909154363 -0.001295079296678169 -0.001058340940466423 -0.006169010007945151 
0.0002411392855469445 0.0001954824215735128 0.003235496536183052 -0.002607897180574506 -0.001003174519999699 -0.0007155476494703085 
0 0.0002990536227094581 -0.0002112760475963494 0.000297766994173157 -4.573276274830586e-05 0 
0.001371373139628504 -0.001014845084689979 0.0003114247464476607 0.0004663106350855157 -0.001147917340220805 -0.0005001277039402155 
0.0006862633462108497 -0.001366679777651715 -0.0001625174985120985 -0.0002961893043442215 -0.001262397088104094 -0.0007294748483054222 
0.0005641113422216917 -0.0002200844779630134 0 0 -0.000158592097782505 -0.0001555404032460598 
0.0003530579227848407 -0.0005082135746554862 0.0003069964566944086 -4.591741133796072e-05 -0.0006319775219099912 6.776263578034403e-21 
-0.0009685302408396508 0.0005371554434920339 0 0.0002919008352243196 0.00152223734820585 -0.0009420207750149666 
-3.962287455894789e-05 -0.002712666443043374 0.0001249636043689348 -0.001268816150193019 -0.004687218803270604 0.004518299207841562 
-0.0006343558066348739 0.0004122061984075261 -3.303896652413618e-05 -0.0001952520645637284 0 0.0004521855672858641 
3.388131789017201e-21 -0.0006502985114130709 -4.170094669161289e-05 0.001540636179327607 -6.776263578034403e-21 0 
0 0 0 0 0 0 
-0.0001816567605690072 0.001007097965433461 0 -0.000301231455378106 -2.371692252312041e-20 -0.0007731747768365803 
0 0 0 0 0 0 
2.329340604949326e-20 0.0006811895559748342 0 -0.0004077167925467099 -2.371692252312041e-20 -0.0002744905433096846 
0 0 0 0 0 0 
0.0005106735312591633 0 0 -4.57106438623323e-05 -1.193261393256338e-05 -0.0006848037541321174 
0.001851703154827643 0.002490596185722456 -0.0003133953952452002 -0.002239500614153743 -0.000907982066043717 -0.00119250516623528 
0.001738981500802844 -0.0008069401922097191 0 -0.0007842033373855064 -0.001598244398124822 -0.000131893750267425 
-0.0004077695162062697 -0.0006676022911682313 0.0001834234451275659 -6.227776524212016e-05 0.0004330527825934409 -0.0007404866830001042 
0.01111837569758229 -0.003442284116032885 -3.303896652413618e-05 -0.005187132880907211 -0.003022844254829992 -0.008100593684451136 
-0.0002637976613762738 0.001447241340231607 0.0008860100696810898 -0.001132274585296613 -0.004331524896428129 0.001835530698811496 
0.0003305668617108161 0.0001392503488227208 0 -0.0008872176715735013 2.032879073410321e-20 -0.0003386755128921288 
-0.01524905497656966 -0.01418829833579849 0.01418388412255785 0.001812290359933813 -0.02098102287881879 0.03010856392096748 
-0.0005233731884556159 -0.002334989757677666 0.003572584765715937 -0.007144422764414277 -0.006149712728559607 0.002737383963620587 
-0.0005294229588808185 -0.001321280401614605 -4.170094669161286e-05 0.001013373536467718 -7.049604068104432e-05 0.0007489164792168232 
0 0 0 0 0 0 
2.329340604949326e-20 0.0006811895559748342 0 -0.0004077167925467099 -2.371692252312041e-20 -0.0002744905433096846 
0 0 0 0 -0.0004702644383994785 0.0003854038183831096 
0.0009042675768389743 -0.0004808450102368369 -4.170094669161289e-05 0.0008539939293664534 0 -0.0005870498483415321 
-4.974336220381393e-05 -7.783397140967736e-05 -0.0002634480739291928 9.845437701246471e-05 0.002463688763257028 -0.0008158968533243994 
-0.0003275068119979214 -8.069459162186175e-05 0.0006062549433010583 -0.000216467274582025 -0.0005354434874290752 0.0007081118975449836 
0.0002180011594779898 -0.003102694950958159 0.001568132563408783 -0.001280273979706139 -0.0001311553439622341 -0.0004741953887202535 
-0.0002627790528877013 -6.776263578034403e-21 0 -0.0002101636556478302 0 0.0002684839222126699 
0 0 0 0 0 0 
3.388131789017201e-21 -0.0002806245548872957 2.541098841762901e-21 0.0007931275871297547 -6.776263578034403e-21 0 
0 0 0 0 0 0 
0 0 0 0 0 0 
0 0 0 0 0 0 
0.0004791764624059432 -0.0005082135746554862 0 -4.591741133796072e-05 -0.000481874172765137 6.776263578034403e-21 
0.00142838999109593 -0.0009094442275102589 5.082197683525802e-21 -0.001767915192632495 -0.0001476231302038256 -0.001145205379159513 
0 0.000231563942313224 5.082197683525802e-21 -3.225619956314875e-05 0 0 
3.388131789017201e-21 -0.0002471806340571811 2.541098841762901e-21 0.00068664224996115 -6.776263578034403e-21 0 
0.001043287804627635 0.0009206997497397195 -0.0002297882632143204 -0.0007566980226765071 -0.0006404662705476407 -0.0001555404032460596 
0.001170288189975741 9.347294312135624e-05 8.131516293641283e-20 -0.0004429679616852248 -2.299041694900716e-05 -0.001258794890289439 
0 0 0 0 0 0 
0 0 0 0 0 0 
2.329340604949326e-20 0.0006811895559748342 0 -0.0004077167925467099 -2.371692252312041e-20 -0.0002744905433096846 
0.000781628189751686 -0.0002705866181720564 0 -0.002666785989236119 -0.0004818741727651369 -0.0001008084569083854 
0 0.0009240586347437982 -7.973553811985645e-05 0.0002977669941731569 0 -0.0005065024748255223 
1.058791184067875e-22 0.001345891451644546 0 -0.0004883827313811625 0 -3.956793025069717e-05 
-0.0001261185396211033 0 0.0003069964566944086 3.388131789017201e-21 -0.0001501033491448562 0 
-0.0001261185396211033 -6.776263578034403e-21 0.0003069964566944086 2.032879073410321e-20 -0.0001501033491448562 0 
0 0 0 0 0 0 
0 0 0 0 0 0 
-0.0003401618545666186 -0.0008431302268021477 0.002300347065684466 -0.001119569024726532 -0.004105879494956933 0.001654696731988488 
-0.0006343558066348739 -0.0002346268660290429 9.192463784479887e-05 0.0001403427529110041 -7.614743323373489e-05 0.0002488060170850571 
0.0005933459145985173 -0.0001244041171672804 0 -0.0006394501337815591 6.776263578034403e-21 -0.0006071594351047979 
0 0 0 0 0 0 
0 0 0 0 0 0 
-0.003074607630173695 0.001069658691430166 -0.0002112760475963495 -0.0005090163225372513 -0.000989311930050981 0.002796047963400574 
-2.954385925635241e-05 -4.10388235962268e-05 0 9.932324398821151e-05 0 0 
6.395098751769968e-20 0.0001089943164507947 -0.0002634480739291928 3.595535454959602e-05 0.002463688763257028 -0.001090387396634081 
-0.001309514296881251 -0.0007754183273219932 -0.001078074420676699 -0.0002409600716192093 -0.0003454475723217415 0.001555732290952103 
0.0004357497117816929 -0.003540959458688259 0.0009450939690814286 0.002761118220604429 -0.00157645403997319 -0.001557745064689083 
-0.0008623016270965535 0.003308356715702873 0.001150822593923212 -0.002164600715893028 0.002642143044479069 -0.002309649272138005 
-5.082197683525802e-21 0.0002834529313828698 0 -0.0002208434101177163 -0.0008501200246921789 0.0003854038183831097 
-0.0002587785259217323 -0.0003097141851182559 9.317362419797304e-21 0.000836172809243823 -0.0004310125849905128 0.0007672661901780438 
4.235164736271502e-21 0.0004591058469304019 0 5.558350450393356e-05 -0.0003930183970162881 -0.000173388354366085 
2.329340604949326e-20 0.0006811895559748342 0 -0.0004077167925467099 -2.371692252312041e-20 -0.0002744905433096846 
0 0 0 0 0 0 
0.0004731167632906955 -0.0007063726687273477 -3.878349011351277e-05 0.00068664224996115 -3.726944967918921e-20 -2.034736201124741e-05 
0.001624684631797621 -0.000137224222416559 0.0009132513999954658 -0.001474152332126846 -0.0003086954469273618 -0.001630121214210618 
7.750351467376848e-20 0.001203247920557242 6.855997798493814e-05 1.267041317175495e-05 -2.032879073410321e-20 -0.0007809930181352067 
0.0002551125326625743 -0.0006327696150138613 -0.0001625174985120985 -0.0001781663849942716 -0.0004190449363786164 0.0001203445824903051 
0 0 0 0 0 0 
3.705769144237564e-20 0.001606586162625587 0.0005265194051812012 -0.000301231455378106 -2.032879073410321e-20 -0.001001687028639474 
-4.235164736271502e-22 0.0004336955463352862 0 -6.21210003170223e-05 -0.0003798555862927013 -0.0002744905433096846 
-4.974336220381393e-05 0.002135432993176211 -0.0002297882632143204 -0.0003800961431434697 0 -3.956793025069717e-05 
